tree
version=v2
num_class=1
num_tree_per_iteration=1
label_index=0
max_feature_idx=31
objective=regression
feature_names=shop_id item_id item_category_id target_lag_1 target_lag_2 target_lag_3 target_lag_4 target_lag_9 target_lag_10 target_lag_11 target_lag_12 item_id_lag_1 item_id_lag_2 item_id_lag_3 item_id_lag_4 item_id_lag_5 item_id_lag_11 item_id_lag_12 shop_id_lag_1 shop_id_lag_2 shop_id_lag_3 shop_id_lag_4 shop_id_lag_5 shop_id_lag_12 item_category_id_lag_1 item_category_id_lag_2 item_category_id_lag_3 item_category_id_lag_4 item_category_id_lag_5 item_category_id_lag_12 month category_shop_inter
feature_infos=7:19:40:5:0:26:10:37:45:31:51:3:1:8:23:21:46:11:18:35:12:14:38:39:48:15:42:50:2:17:52:43:29:34:44:20:32:49:4:22:33:24:41:47:25:28:13:36:9:27:6:16 [-1.7970000088252442:1.7373937417236978] 38:51:35:29:54:17:28:53:68:36:21:41:63:39:59:60:46:57:26:65:66:61:58:18:71:23:74:72:52:43:22:20:50:19:1:2:69:5:27:45:73:4:55:6:56:13:9:42:12:31:8:62:14:37:33:32:30:79:15:10:3:7:76:40:78:75:24:70:67:77:34:11:25:44:16:47:49 [-0.24140268623129993:16.092568332323449] [-0.2401864025342581:15.930965471515275] [-0.23743309802336149:15.813483056686763] [-0.23451498255220796:15.644957113613637] [-0.22040715474486447:16.174154443303181] [-0.21629718774249382:16.189815994257604] [-0.21086886570691629:16.524739550142101] [-0.20698868636221845:16.66100390377947] [-0.33163361591149509:123.06564195842711] [-0.36419322988839475:116.71658423954149] [-0.31876225405029279:113.63088647827117] [-0.15527671913752408:112.35961851926621] [-0.15348509403804966:111.40065604908996] [-0.15264996707070952:118.04235889300266] [-0.15280974601621811:82.714552931120252] [-1.1730223700659397:7.661627434302237] [-1.1763974181603876:7.5271834734722685] [-1.174905128042278:7.3811432186833148] [-1.1804145875722563:7.2471399586231469] [-1.1883355321233635:7.1656449709580006] [-1.1798348772479341:6.6911043601007272] [-0.99094260580846527:3.4995312266483842] [-0.98490972680786104:3.302917509471039] [-0.98079069661561913:3.1400132480305354] [-0.98011564021072428:3.0103344793164704] [-0.98184571258594344:2.8961325453290669] [-0.9101698708420437:2.945723072765928] 1:0:2:3:6:4:5:7:8:11:9:10 1704:1662:1674:1701:1666:1696:1670:1688:1671:1698:1665:1709:1711:1673:1683:1693:1695:1691:1667:1663:1675:1700:1681:1697:1713:1676:1679:1689:1702:1710:1705:1686:1703:1678:1677:1707:1692:1708:1669:1712:1690:1680:1706:1682:1699:2409:2402:2381:2407:2389:2421:2424:2376:2418:2416:2397:2425:2427:2377:2385:2392:2411:2393:2380:1694:2403:2395:2423:2410:2415:2387:2417:1668:2400:2414:2419:2412:2426:2422:2384:2388:2390:2383:2391:2406:2405:2379:1468:1494:2404:1685:1485:1454:1481:1464:1489:1459:1470:1458:1466:1475:1455:1491:1451:1499:1472:1490:1487:1465:1500:1480:2394:1462:1463:1482:1496:1498:1478:1493:2413:1460:1502:1456:1484:1486:1452:1477:1501:1492:2396:1664:1467:1497:2420:1469:1488:2408:1495:2382:2399:1479:1684:1483:1471:1457:1474:2398:1453:1158:1155:1156:1167:2378:1187:1168:1152:1183:1145:1169:1162:1144:1182:1176:1153:1160:1172:1149:1181:1189:1142:1141:1180:1184:1186:1171:1190:1175:1177:1146:1150:1170:1192:1148:1154:1174:1157:1188:1165:1191:1473:1178:1185:1164:1179:1159:491:1088:2586:2566:2582:2583:458:488:1097:2547:498:2538:2542:1096:1118:2559:2569:468:1112:2570:1089:1139:2550:472:479:494:1101:2552:2585:1095:1105:1138:2576:503:1134:1136:2561:462:481:1130:2554:2575:486:1135:1528:2540:2543:2562:474:500:1093:1103:466:476:501:1091:456:2533:2536:1122:2503:2549:455:484:493:1131:2501:2548:464:686:1115:1504:2497:2546:2574:463:467:495:506:1104:1117:1126:1161:2483:2535:2568:3407:459:483:2482:2518:3401:482:1109:2493:2539:2573:2584:471:1127:1133:1147:489:505:718:1123:2521:3405:668:670:1102:1107:1124:1129:1513:2564:3373:460:469:485:1092:1099:2495:2512:2515:2520:3381:496:497:504:710:2553:2571:679:2516:2563:2572:3403:3420:703:706:2522:2524:2565:2580:1100:1128:1509:1517:1554:2513:2544:2551:3410:502:705:1106:1114:1119:1525:2527:2556:3393:3417:492:1543:1826:2523:2530:3375:3398:1121:1137:1817:1862:3415:696:1173:2511:470:490:667:693:1523:1825:1829:2487:3419:671:714:1505:1852:2499:3111:3406:1512:1859:2558:3376:3388:3402:3421:709:1108:1132:1515:1530:1550:1850:1864:2494:2525:674:1163:1539:1547:2506:3387:678:697:700:1125:1551:1555:1853:2581:3107:3412:672:701:1116:1518:1531:1532:1824:1830:1867:3088:3391:3411:3423:698:1847:2491:2496:3112:707:712:1511:1533:1865:3385:683:691:713:1534:1537:1552:1822:2490:2517:2528:2578:3096:3379:704:708:1542:1835:3380:3384:3399:3400:473:1856:2498:2508:2529:2577:3413:3422:1841:1848:1855:2486:2531:2867:3095:3097:3383:3418:676:1516:1540:1832:2485:3109:717:1521:1549:2532:3068:3078:499:702:1831:2489:2509:2510:3069:3072:3080:3106:3386:3414:487:1546:1858:3065:3091:3408:682:1522:1838:2500:3062:675:685:1535:1538:1545:1860:2519:694:1507:1508:1553:1766:1821:3061:3074:3075:3076:3101:3103:3108:3372:3396:684:688:715:1746:1820:1833:1851:2579:3066:3082:1519:1722:1863:3064:3079:1520:1544:1818:1846:2885:2894:3087:3104:3389:478:680:716:1837:1866:1868:2555:3077:2861:2901:2902:3092:1724:1749:1762:2502:3070:3395:1732:1828:1836:2897:3090:3102:1541:1720:1844:2567:2881:2892:3100:461:1094:1111:1730:1758:1834:2864:3073:3099:3110:3409:1739:2893:2908:695:1845:2514:2890:681:1736:1761:1763:2505:2853:2900:3085:3089:3094:1751:1755:1760:1843:2526:3390:1120:1744:2856:2873:3416:1854:2878:3105:475:1748:2857:2888:2895:2946:3093:1510:1524:1548:1726:2860:1716:1733:2488:2879:2887:2898:1727:1729:1734:2852:690:711:1527:1857:2876:2882:2891:2910:3377:687:1723:1752:1861:2868:2886:2903:3081:1718:1756:2859:2880:1742:1745:1750:2869:1823:2938:2954:1741:1743:1753:1757:1764:2541:2749:2866:3173:2797:2863:3167:3392:1765:2080:2115:2947:699:1715:2126:2484:2784:2870:2929:2959:965:1719:1728:1754:2084:2899:2914:932:977:2103:2747:2865:2916:2941:2948:2953:2956:3187:3199:673:933:1759:1849:2092:2106:2794:2871:2906:2940:976:1536:1714:2113:2119:2127:2782:2875:457:551:942:1143:2112:2761:2774:2788:2912:2918:2926:2931:2934:2951:3163:929:967:2117:2750:2792:2812:2855:2909:2950:3309:3404:2086:2755:2767:3207:971:1731:2077:2122:2753:2786:2883:2921:2922:2958:2998:944:978:2091:2110:2428:2773:2787:2789:2791:2807:2847:2943:3169:3189:3193:3196:3206:3278:3378:958:975:1090:1526:1735:2085:2111:2772:2816:2828:2919:2932:2944:2945:2979:2984:2997:521:948:2088:2089:2096:2763:2781:2803:2844:2920:2952:3067:3098:3191:3302:3304:959:1840:2777:2806:2829:2924:2935:3211:3281:3292:963:972:2116:2557:2754:2758:2775:2793:2795:2850:2889:2896:2933:2971:3186:3269:3285:3315:930:941:946:953:980:2081:2105:2107:2123:2762:2905:2917:2949:2969:3009:3197:3203:3274:3295:3301:3305:477:936:974:2760:2770:2835:2913:3175:3198:3299:3307:3314:536:547:934:970:979:2108:2757:2776:2780:2783:2796:2810:2939:2989:3008:3202:3208:3277:3618:529:937:966:2082:2840:2872:2884:2967:2985:2991:3084:3174:3266:3283:3293:3317:3394:3588:516:955:960:962:964:969:2093:2094:2128:2746:2759:2785:2817:2966:3005:3007:3164:3188:3267:3271:3273:3561:3566:522:956:957:2098:2104:2125:2751:2814:2838:2986:3001:3063:3195:3200:3209:3306:3311:3541:3694:793:943:1110:1747:2095:2118:2120:2121:2765:2805:2848:2936:2955:2972:2993:3160:3168:3177:3184:3210:3282:3297:3559:3563:3580:517:779:2114:2124:2832:2841:2942:2965:2970:2995:2996:3181:3190:3270:3275:3537:3544:3581:512:541:549:783:785:796:973:2078:2537:2769:2779:2823:2825:2834:2846:2923:2928:2975:3171:3176:3179:3201:3534:3577:3598:532:553:669:938:1721:1738:2802:2849:2961:2973:2988:3003:3313:3316:3531:3634:515:537:543:545:546:550:554:558:776:803:940:968:2090:2804:2842:2843:2858:2987:3194:3533:3689:3738:527:531:544:689:777:788:789:945:2799:2845:2963:2974:2977:3296:3539:3542:3556:3571:3594:3623:559:781:802:950:1503:2101:2474:2800:2813:2815:2820:3000:3083:3161:3178:3205:3279:3290:3308:3543:3545:3576:3578:3596:3614:3624:3690:3703:3719:3730:513:523:524:538:556:773:2811:2830:2837:2994:3172:3287:3564:3572:3579:3591:3724:520:818:947:952:2100:2432:2808:2818:2999:3183:3312:3547:3548:3551:3569:3622:3629:3723:542:548:787:791:961:2465:2752:2839:2992:3272:3303:3530:3550:3554:3568:3590:3595:3620:3631:3710:3716:3718:3726:3728:508:511:534:811:815:1819:1944:1965:2109:2472:2480:2833:2854:3004:3286:3538:3592:3609:3626:3707:3739:519:539:757:772:806:808:812:1672:1959:2097:2504:2836:2981:3006:3298:3546:3549:3597:3602:3607:3692:3704:3706:3708:3709:3722:3734:3735:525:726:747:799:819:935:2463:2925:2982:3280:3374:3557:3560:3573:3575:3583:3604:3613:3632:3702:3705:3715:3731:720:732:784:801:805:817:822:949:1935:2083:2441:2444:2458:2962:3294:3300:3565:3628:3701:3740:557:770:775:823:1082:1506:1717:2429:2450:2453:2459:2790:2831:3535:3558:3698:3700:535:597:652:655:728:755:778:792:800:1928:2433:2434:2445:2469:2471:2827:2978:3310:3567:3589:3611:3619:3697:3725:555:626:630:724:750:786:798:807:816:1940:1947:1956:2339:2436:2448:2976:2990:3002:3165:3204:3536:3570:3584:3616:3617:3621:3630:3696:3713:3720:509:526:621:650:654:665:749:809:814:1936:1954:2437:2467:2764:2826:3166:3284:3562:3586:3727:3733:618:629:631:640:659:660:664:734:810:820:1737:1939:1957:1968:2447:2455:2468:2479:2819:2874:2927:3289:3587:3612:3729:3736:648:656:742:745:761:766:813:821:1839:1927:1958:2336:2349:2352:2443:2768:3288:3599:3610:3717:3732:3737:566:622:628:1942:1966:2099:2365:2456:2457:2470:2473:3180:3192:3625:573:608:638:649:730:731:743:759:765:768:1924:1952:2332:2373:2446:2460:3574:3603:3693:3712:3721:552:570:588:595:615:623:625:657:727:738:1923:1950:1969:1973:2328:2338:2363:2438:2464:2477:2478:2801:2937:2964:3711:575:585:611:645:721:735:756:760:804:1932:1961:1970:1971:2342:2358:2371:2435:2778:3162:3600:3601:3633:514:528:594:596:601:614:627:663:733:753:767:769:790:1085:1962:2331:2372:2442:2462:2475:2911:574:576:591:592:604:609:632:635:651:723:780:1059:1068:2340:2350:2449:2476:3182:3606:3627:561:582:612:633:641:647:661:740:752:754:758:1035:1930:1934:1938:1949:1964:2337:2344:2361:2430:2431:2821:3605:3615:3695:565:578:606:619:643:1039:1657:1953:1963:1972:1974:2334:2335:2353:2354:2362:2364:2369:2370:2374:2822:2907:3553:562:567:581:610:617:662:748:951:1054:1064:1628:1951:1967:2324:2330:2366:2367:2368:2440:3232:3255:3532:569:579:607:931:1036:1044:1048:1080:1461:1609:1622:1624:1931:1941:1946:2356:2360:2461:2766:3256:3465:530:600:602:653:658:741:762:764:1049:1078:1079:1081:1084:1645:1929:1937:2079:2326:2327:2466:3268:3463:564:568:580:587:590:642:646:746:774:1038:1041:1074:1076:1086:1193:1616:2323:2341:2386:3220:3224:3249:3254:3426:3464:3468:603:737:794:795:1031:1040:1042:1046:1056:1069:1070:1073:1077:1614:1617:1618:1629:1638:1646:1650:2357:2452:2587:2620:3239:3433:3444:3458:3667:3822:540:589:605:644:1052:1053:1140:1620:1642:1652:1943:1960:2030:2058:2069:2359:2980:3230:3246:3248:3251:3428:3430:3438:3455:3467:3472:3585:3798:83:637:722:736:1051:1063:1071:1075:1626:1627:1636:1955:2071:2346:2607:2689:2691:2960:3258:3262:3449:3470:3474:285:288:563:577:584:593:599:1012:1025:1037:1047:1055:1058:1065:1612:1623:1630:1633:1647:2049:2052:2063:2070:2343:2347:2654:3213:3216:3217:3225:3227:3229:3242:3259:3425:3432:3439:3442:3446:3461:3462:3475:3476:3552:3671:3674:3691:277:507:510:572:763:986:1015:1017:1032:1067:1072:1610:1637:1651:1654:1659:2045:2046:2355:2613:2618:2619:2646:2670:2686:2706:2733:3222:3228:3240:3243:3261:3451:3469:3473:3647:3795:44:719:991:993:994:997:1000:1016:1021:1024:1061:1066:1643:1648:1649:1658:1884:1926:1945:2028:2029:2038:2048:2054:2059:2072:2075:2329:2351:2534:2606:2617:2657:2735:2740:2798:3234:3244:3245:3260:3263:3431:3434:3453:3454:3456:3460:3636:3652:3681:3811:3821:55:81:253:264:271:281:598:620:634:739:1003:1028:1050:1062:1267:1556:1613:1632:1640:1644:1660:1869:1875:1891:2060:2062:2597:2600:2632:2637:2641:2651:2668:2669:2698:2705:2709:3215:3247:3252:3257:3429:3437:3443:3459:3651:3655:3682:3797:3810:3815:3820:3830:3835:4112:4121:59:212:246:248:262:263:274:298:348:616:751:982:988:989:1083:1194:1297:1621:1625:1635:1655:2040:2053:2056:2064:2073:2592:2605:2608:2616:2621:2640:2649:2652:2673:2674:2680:2683:2694:2696:2711:2712:3113:3218:3226:3231:3445:3466:3471:3649:3677:3685:3799:3813:3823:3834:3836:3843:4107:4140:4141:45:54:76:198:201:228:232:236:259:265:273:296:983:995:996:998:1002:1008:1009:1018:1023:1027:1043:1151:1282:1514:1631:1656:1874:1887:1909:1925:2033:2034:2041:2065:2345:2589:2599:2604:2609:2630:2631:2656:2672:2676:2681:2685:2690:2702:2708:2717:2730:2731:2732:3023:3024:3054:3060:3236:3250:3264:3440:3441:3640:3642:3644:3653:3654:3663:3666:3672:3676:3678:3686:3687:3801:3802:3808:3817:3818:46:56:60:62:66:71:79:80:88:91:92:197:210:218:235:254:255:257:261:267:269:280:289:299:636:987:1001:1010:1029:1030:1098:1250:1254:1255:1266:1275:1290:1356:1590:1615:1897:1905:1913:2031:2057:2066:2594:2595:2612:2614:2623:2625:2626:2629:2634:2635:2636:2645:2659:2663:2675:2688:2707:2716:2719:2721:2738:2741:2756:3010:3015:3018:3042:3045:3071:3219:3221:3233:3235:3382:3448:3457:3637:3641:3643:3650:3659:3665:3673:3684:3805:3806:3809:3824:3825:3829:3832:4108:4117:4128:4134:4135:51:57:61:64:65:87:89:205:227:250:276:278:286:294:306:310:315:583:677:981:985:990:1005:1006:1014:1019:1022:1033:1197:1257:1259:1262:1263:1273:1284:1296:1326:1388:1391:1572:1576:1587:1602:1605:1725:1870:1873:1878:1879:1883:1900:1901:1903:1904:1908:1915:2032:2035:2087:2325:2492:2588:2591:2596:2602:2622:2644:2647:2677:2678:2682:2684:2701:2704:2722:2723:2726:2727:2728:2739:2743:2744:3019:3026:3043:3048:3051:3241:3253:3424:3436:3452:3645:3657:3660:3662:3675:3679:3796:3803:3816:3837:3838:3839:3842:4034:4041:4052:4104:4109:4137:4139:4142:4147:4150:47:48:50:53:69:72:90:99:107:113:202:209:214:217:220:221:224:225:230:237:238:240:243:244:247:251:279:283:311:317:322:331:341:349:356:381:387:402:404:725:984:1013:1057:1235:1236:1246:1261:1268:1274:1277:1280:1281:1283:1287:1289:1292:1307:1323:1364:1371:1378:1386:1390:1570:1584:1592:1594:1596:1639:1653:1767:1877:1881:1882:1893:1896:1899:1916:1917:1918:2043:2051:2061:2141:2545:2593:2601:2603:2633:2643:2648:2653:2660:2661:2664:2666:2667:2671:2693:2699:2710:2714:2720:2725:2729:2742:2748:2915:2957:3016:3020:3047:3049:3056:3057:3214:3237:3427:3447:3635:3639
tree_sizes=3052 4099 4416 3850 4870 3967 2586 4023 4108 4656 3258 3999 4394 5339 3650 4064 4153 2576 4868 2706 3641 5243 3667 2678 4444 2668 5499 4806 3947 4619 2675 2603 6433 6447 4715 2615 4278 2561 6044 2614 2560 4745 2601 6670 3706 2555 5840 7617 2589 4941 2628 2585 4957 5126 5541 4935 2590 5397 6239 5783 4525 5169 5255 3136 2574 2577 6060 2609 2614 6135 3307 4696 2548 2567 7569 5237 2585 5315 3843 2537 6067 2553 2586 2633 6450 5857 7226 6758 6671 2640 6447 6301 6345 7222 4461 6968 6783 5051 5858 5828 2577 2483 5682 2651 7191 2521 5916 7769 5042 5131 3832 5324 4478 3993 5311 6979 7356 4648 2591 4910 9478 2609 4260 7438 4850 5409 7510 2590 2491 4755 4457 7754 2535 2644 5610 5066 6781 2646 4888 2582 2503 2521 7625 2811 4646 6710 6653 5411 4439 4304 3451 9189 7808 2518 2557 5818 6363 5195 3844 2596 2625 2532 2556 7586 7077 6561 4059 2554 2552 6648 2547 4062 5661 4180 3620 3927 4171 4334 5358 5489 5671 4204 4525 2521 3671 4505 2520 3115 5123 4123 7199 4835 6354 5747 4583 2901 3952 2526 5514 4154 3250 2593 2549 4084 4073 7806 4368 2581 2515 4952 5946 2571 5583 4999 4927 2547 2500 6623 7389 5359 2599 3907 3985 7179 2568 6113 3491 2594 2578 6294 2551 6319 6072 2593 4136 2630 2538 2550 8166 4987 3886 3652 4895 4956

Tree=0
num_leaves=31
num_cat=8
split_feature=3 3 3 2 3 3 31 3 12 2 5 3 0 13 2 12 17 12 5 5 30 31 15 12 3 5 5 0 12 17
split_gain=1.52484e+06 387111 288835 88074.2 56367.5 51479.5 44085.9 34331.9 32194.6 26010.3 23102.3 23040.9 19526.3 19097.5 19962.2 17169.5 15543.9 18200.5 13901.8 13207.4 12986.8 12966.6 12986.4 12178.8 11755.7 11259.9 11072.7 8916.32 8410.69 8199.1
threshold=3.4337407929435191 10.784027751293157 0.98364514016030624 0 1.0000000180025095e-35 5.8838364457267316 1 1.8003436910880437 -0.14838938839890739 2 3.3740230367864164 15.684219056859581 3 -0.14601223343667749 4 0.22567060351620408 -0.12854830946710913 -0.14838938839890739 3.3740230367864164 2.5714772290509105 5 6 -0.14016042357183747 0.1393490669204091 15.684219056859581 3.3740230367864164 1.7689314213154042 7 -0.014111442583226377 -0.12854830946710913
decision_type=2 2 2 5 2 2 5 2 2 5 2 2 1 2 5 2 2 2 2 2 1 5 2 2 2 2 2 1 2 2
left_child=2 5 4 24 6 18 8 26 21 13 -7 25 -11 14 16 -6 17 20 -2 -9 27 22 -1 -15 -3 -5 -4 -8 -14 -16
right_child=1 3 7 11 15 10 9 19 -10 12 -12 -13 28 23 29 -17 -18 -19 -20 -21 -22 -23 -24 -25 -26 -27 -28 -29 -30 -31
leaf_value=1.0078581100535133 0.56506962944126804 1.5761280660382684 0.35913565745295584 0.92205244114954599 0.30526256224705089 0.73064970292113007 1.0141834143579014 0.43692933763668756 0.33557271190131821 0.29564818660766806 0.97443590919942602 1.3825041263726581 0.26968728722380747 0.27783716162073246 0.33687263984636934 0.35504912978752884 0.26725438929546574 0.28836851502436978 0.71232294788257955 0.54025905257885665 0.47930943819188021 0.54009146558915377 0.28209765777386864 0.32105470232416189 2.1111662323167417 1.2634950965208773 0.44030791320119361 0.627786412626966 0.28461155393068732 0.27007907130258624
leaf_count=1428 22053 570 101839 2637 360658 9774 849 57936 8092 376732 6454 4034 2900711 275193 65968 85734 3898 3075 9039 15728 5614 3404 298 85453 1469 1524 20126 2264 434126 25475
internal_value=0 5.11652 -0.0612716 10.6933 -0.111465 3.91043 -0.147434 1.12898 1.67501 -0.153203 5.35416 9.18897 -0.18121 0.0690108 0.439711 0.226355 1.48107 2.05385 3.1569 1.66802 2.791 3.63608 5.86963 -0.0411174 16.6126 7.5492 0.803412 4.42953 -0.205589 0.260728
internal_count=4892155 57554 4834601 10234 4638972 47320 4192580 195629 13222 4179358 16228 8195 3711569 467789 107143 446392 15700 11802 31092 73664 8727 5130 1726 360646 2039 4161 121965 3113 3334837 91443
cat_boundaries=0 3 117 120 122 124 125 200 202
cat_threshold=384 262147 2444 0 0 0 0 0 0 0 0 0 0 0 0 0 0 0 536870912 403930504 18689 0 0 0 0 0 0 0 0 0 0 0 0 8388608 2099216 0 0 0 1048576 0 4 0 0 0 0 0 0 0 0 0 0 0 0 0 0 0 0 0 0 0 0 0 0 0 0 0 16777216 0 0 0 0 0 0 0 0 0 0 1 0 0 0 0 0 0 0 0 0 0 0 16 16384 0 0 0 0 268435456 8 0 0 0 0 0 0 0 0 0 0 0 4194304 0 0 0 0 0 0 0 4096 3697689796 536871170 38920 76611584 294920 201588736 256 1296 0 0 0 0 0 0 0 0 0 0 0 0 0 0 0 536870912 402799872 16640 0 0 0 0 0 0 0 0 0 0 0 0 8388608 2099216 0 0 0 0 0 0 0 0 0 0 0 0 0 0 0 0 0 0 0 0 0 0 0 0 0 0 0 0 0 0 0 0 0 0 0 0 0 0 0 0 0 0 1 2801681681 33049
shrinkage=1


Tree=1
num_leaves=31
num_cat=7
split_feature=3 3 3 11 2 3 31 11 23 13 5 23 5 31 11 23 3 31 11 31 11 14 2 15 12 16 31 11 5 23
split_gain=1.2359e+06 315480 234008 72407.2 64461.6 51216.8 41598.7 33076.5 29359.2 20854.1 18957.6 17687.9 15568.7 14776.6 21955.9 14398.5 13807.5 13389.6 11611.4 9460.63 18172.3 9298.08 8520.2 11095.1 12654.1 13173 19184.6 8327.3 8172.32 7563.28
threshold=3.4337407929435191 11.600726302220894 0.98364514016030624 0.10504063960008091 0 6.7005349966544694 1 0.48774391971134984 0.84891683449912259 -0.14601223343667749 4.1765688445219231 0.5373206372122471 3.3740230367864164 2 -0.15009488047409833 0.3812813650414974 15.684219056859581 3 0.53680844280253825 4 -0.15009488047409833 -0.14183729065706493 5 -0.14016042357183747 -0.14838938839890739 -0.12912201722198083 6 -0.051965834291721712 11.39948111414148 0.50355634338859179
decision_type=2 2 2 2 5 2 5 2 2 2 2 2 2 5 2 2 2 5 2 5 2 2 5 2 2 2 5 2 2 2
left_child=2 5 3 6 -3 12 9 17 19 13 -7 18 -2 -1 -15 -9 -6 -4 -5 20 21 -8 -10 24 25 26 -24 -21 -18 -19
right_child=1 4 7 11 16 10 8 15 22 -11 -12 -13 -14 14 -16 -17 28 29 -20 27 -22 -23 23 -25 -26 -27 -28 -29 -30 -31
leaf_value=0.15385845402903423 0.25597753274767726 1.5423692753577769 0.1752956722468719 0.014568422892122812 0.70841592004670306 0.43918649421278738 0.36161148107579993 0.13637879047954982 -0.020679635205178386 0.050491885702321604 0.69483651684295511 0.097671954220948015 0.39934211343336745 0.64290798275822092 0.03069745869625087 0.25520523196269301 0.92407315015522151 0.037855298600915889 0.057868611321581845 -0.019848173969633467 -0.0016227557500132388 -0.018588077308133593 0.23906266138070961 0.0045002408367015951 0.0054660754385554913 -0.013999296594733488 0.068739168981095597 -0.0073847971094306592 1.3055701189532654 0.088712400048638229
leaf_count=3685 25376 1792 11429 265977 3167 7814 2552 54419 83842 8758 4613 36682 10798 1974 833 12549 3468 61812 80727 3076699 9960 860 8056 307146 51597 13290 36913 649201 670 55496
internal_value=0 4.60106 -0.0546758 -0.0998658 10.0058 3.5894 -0.137367 1.01645 -0.143297 1.51074 5.34086 0.316371 2.98772 2.86996 4.59592 1.58645 8.64384 0.719941 0.246505 -0.173751 0.665584 2.65782 0.0840685 0.142551 0.4153 0.734699 0.993203 -0.176765 9.85843 0.619095
internal_count=4892155 57698 4834457 4638752 9097 48601 4255366 195705 4240116 15250 12427 383386 36174 6492 2807 66968 7305 128737 346704 3739272 13372 3412 500844 417002 109856 58259 44969 3725900 4138 117308
cat_boundaries=0 3 120 237 357 476 479 582
cat_threshold=384 262147 2472 0 0 0 0 0 0 0 0 0 0 0 0 0 0 0 536870912 403930252 16641 0 0 0 0 0 0 0 0 0 0 0 0 8388608 6291472 0 0 0 0 0 4 0 0 0 0 0 0 0 0 0 0 0 0 0 0 0 0 0 0 0 0 0 0 0 0 0 16777216 0 512 0 0 0 0 0 0 0 0 1 0 0 0 0 0 0 0 0 0 0 0 16 16384 0 0 0 0 268435456 8 0 0 0 0 0 0 0 0 0 0 0 4194304 0 0 0 0 0 0 0 4096 0 0 4194304 0 0 0 0 0 0 0 0 0 0 0 0 0 0 0 0 0 0 0 0 0 0 0 0 0 0 0 0 0 0 0 0 0 0 0 0 0 4 0 0 0 0 0 0 0 0 0 0 0 0 0 0 0 0 0 0 0 0 0 0 0 0 0 16777216 0 512 0 0 0 0 0 0 0 0 0 0 0 0 0 0 0 0 0 0 0 0 0 16384 0 0 0 0 268435456 8 0 0 0 0 0 0 0 0 0 0 0 4194304 0 0 0 0 0 0 0 4096 0 0 4194304 0 0 0 0 0 0 0 0 0 0 0 0 0 0 25165824 0 136192 0 0 0 0 6144 0 16384 0 0 0 0 0 4194304 8192 0 0 0 2097152 0 0 4 0 0 0 0 0 0 0 0 0 0 0 0 1149239296 0 524288 0 0 0 0 0 0 0 0 0 0 0 1073741824 512 0 0 0 0 0 0 0 0 1 0 0 0 0 0 0 0 0 0 0 0 0 0 0 33554432 0 128 268435456 67108872 0 0 0 0 0 0 0 0 262144 0 0 0 0 24576 0 0 0 33554432 0 4096 0 0 4194304 0 0 131072 0 0 0 8 0 0 0 0 0 0 0 0 0 0 0 2147483648 3250619187 41176 0 0 0 0 0 0 0 0 0 0 0 0 33554432 65574 256 0 0 0 0 0 0 0 0 0 0 0 0 0 0 0 0 0 0 256 0 0 0 0 0 0 0 134217728 0 0 0 0 1073742080 0 0 0 0 0 0 0 0 0 0 0 0 0 0 0 0 0 0 0 0 0 0 0 0 0 0 0 0 0 0 0 0 0 0 0 0 0 0 0 0 0 0 8192 0 0 0 0 0 0 0 0 0 0 1048576 587303690 29676549 26592 0 0 0 0 0 0 0 0 0 0 0 0 0 0 270532608 64 0 2048 0 134217728 0 65536 0 0 0 0 0 0 0 4620288 598017 2048 32 0 2149793792 266240 0 0 0 0 0 0 0 0 0 0 0 2149597184 4096 0 0 0 528384 1024 0 0 0 0 0 0 0 0 0 0 0 0 0 0 0 0 0 0 0 0 536870912 0 0 0 0 0 0 0 0 0 0 0 0 0 0 0 0 0 0 0 0 0 0 0 0 0 0 0 262144
shrinkage=0.1


Tree=2
num_leaves=31
num_cat=8
split_feature=3 3 3 11 5 3 3 31 0 4 4 5 13 5 31 11 31 11 14 11 6 31 11 0 11 4 4 15 31 31
split_gain=1.01568e+06 240607 207816 58504 46100.5 41847.7 33235.2 33145.3 24650.9 19759.1 17345.3 15627.9 14489.9 14248.8 12616.2 15539.3 9773.64 19095.5 9539.58 9044.86 8288.08 7858.82 7358.83 7195.1 6400.81 6155.54 5956.1 5892.09 5831.31 5469.71
threshold=4.2504393438712569 0.98364514016030624 13.234123404076369 0.10504063960008091 11.39948111414148 2.6170422420157817 8.3339320985099459 0 1 1.7812075817219337 0.97264998801945701 5.7816604599929358 -0.14601223343667749 3.3740230367864164 2 -0.15009488047409833 3 -0.15009488047409833 -0.14183729065706493 0.25223420887364589 2.5443926342768153 4 -0.061778738909959371 5 -0.032340025055246385 15.52668667466404 5.8239955502343177 -0.14016042357183747 6 7
decision_type=2 2 2 2 2 2 2 5 1 2 2 2 2 2 5 2 5 2 2 2 2 5 2 1 2 2 2 2 5 5
left_child=1 3 6 7 28 9 13 12 21 19 23 -8 14 -2 -1 27 17 18 -10 -3 -7 -9 -23 -5 -18 -6 -15 -16 -4 -25
right_child=2 5 4 10 25 20 11 8 16 -11 -12 -13 -14 26 15 -17 24 -19 -20 -21 -22 22 -24 29 -26 -27 -28 -29 -30 -31
leaf_value=0.15812889918395576 0.28029884920606635 0.039030415473418956 0.97085145285100938 0.0050385419436875687 1.0684929411493607 0.1659524513740932 0.4686430877196256 0.050901260207230681 0.34720963975199171 0.14469259275529292 0.075155033479300928 0.7689228281994267 0.052702976281740782 0.35661603794637581 0.72064948402190854 0.03870512376632864 -0.017886486375510879 -0.002713376799894706 -0.018116214562077921 0.091502767638325114 0.27107088439552474 -0.0020228201683286005 0.029028944093301975 0.19058877615365702 -0.0055631045290301653 1.4494460919546164 0.51504236576772466 -0.059745125603817763 0.7198249616138358 0.032815962523466351
leaf_count=4148 17965 78146 1667 173936 572 30182 5420 36980 2896 35769 65737 2548 8040 5012 1231 578 3162347 10722 949 56675 9981 448805 91957 2223 486291 1641 4507 105 3456 141669
internal_value=0 -0.0426093 4.85095 -0.0900887 9.69568 1.0024 3.84844 -0.123807 -0.128898 0.786183 0.283963 5.64666 1.40621 3.32711 2.57459 4.69448 -0.159175 0.658046 2.57042 0.610883 1.92076 0.063079 0.032575 0.187251 -0.16244 13.5098 4.31627 6.59316 8.04808 0.352665
internal_count=4892155 4849367 42788 4638614 7336 210753 35452 4255049 4240947 170590 383565 7968 14102 27484 6062 1914 3663205 14567 3845 134821 40163 577742 540762 317828 3648638 2213 9519 1336 5123 143892
cat_boundaries=0 117 119 236 363 483 485 591 710
cat_threshold=0 0 0 0 0 0 0 0 0 0 0 0 0 0 0 536870912 412300292 16641 0 0 0 0 0 0 0 0 0 0 0 0 8388608 6293524 0 0 0 0 0 4 0 0 0 0 0 0 0 0 0 0 0 0 0 0 0 0 0 0 0 0 0 0 0 0 0 16777216 0 512 0 0 0 0 0 0 0 0 1 0 0 0 0 0 0 0 0 0 0 0 16 16384 0 0 0 0 268435456 8 0 0 0 0 0 0 0 0 0 0 0 4194304 0 0 0 0 0 0 0 4096 0 0 4194304 80740352 294920 0 0 0 0 0 0 0 0 0 0 0 0 0 0 0 0 8454148 0 0 0 0 0 0 0 0 0 0 0 0 0 0 0 0 0 0 0 0 4 0 0 0 0 0 0 0 0 0 0 0 0 0 0 0 0 0 0 0 0 0 0 0 0 0 16777216 0 512 0 0 0 0 0 0 0 0 0 0 0 0 0 0 0 0 0 0 0 0 16 16384 0 0 0 0 268435456 8 0 0 0 0 0 0 0 0 0 0 0 4194304 0 0 0 0 0 0 0 4096 0 0 4194304 0 0 0 0 0 0 0 0 0 0 0 0 0 0 0 2147483648 3242216379 42200 0 0 0 0 0 0 0 0 0 0 0 0 2147483648 65568 256 0 0 0 0 0 0 0 0 0 0 0 0 0 0 0 0 0 0 0 0 0 0 0 0 0 0 134217728 0 0 0 0 1073745920 0 0 0 0 0 0 0 0 0 0 0 0 0 0 0 0 0 0 0 0 0 0 0 0 0 0 0 0 0 0 0 0 0 0 0 0 0 0 0 0 0 0 8193 0 0 0 0 0 0 0 0 0 0 0 0 0 0 0 0 0 0 4 0 0 0 0 0 0 0 0 0 536870912 0 0 0 0 0 0 0 2048 0 134217728 0 0 536870912 16384 0 0 0 0 0 4358144 1 0 0 0 2113536 0 0 0 0 0 0 0 0 0 0 0 0 0 0 0 1115684864 2097152 524288 0 0 0 0 16384 0 0 0 0 0 1073741824 256 0 0 0 0 0 0 0 0 0 0 0 0 0 128 0 0 1024 0 0 0 0 0 0 0 33554432 0 128 1073741824 67117056 65536 0 8 0 0 64 0 0 327680 0 0 0 0 0 0 0 0 0 0 0 0 0 0 0 0 1 2550933383 1127526 0 0 0 0 0 0 0 0 0 0 0 0 0 0 8388608 0 134362112 2049 0 0 0 4096 0 0 0 0 0 0 0 4620288 8192 0 0 0 2310144 0 0 4 0 0 0 0 0 0 0 0 0 0 0 0 0 0 561152 9216 0 0 0 0 0 0 0 0 0 0 0 512 0 0 0 0 0 0 0 0 1 0 0 0 0 0 0 0 0 0 0 0 0 0 0 0 0 0 0 67117056 0 0 0 0 0 0 0 0 262144 0 0 536870912 0 0 0 0 0 0 0 0 0 0 0 0 0 0 268435456 134217728 134217728 0 0 8388608 0 72192 35840 0 0 0 0 0 0 4325376 0 0 0 0 2179072 1048576 0 0 0 0 0 0 0 0 0 0 67108864 0 32768 0 67108864 0 524288 8192 0 0 0 0 0 0 0 0 0 0 0 0 0 0 0 0 0 0 0 0 0 0 0 0 0 0 0 0 0 0 0 0 0 0 0 0 0 16512 268435456 0 0 0 0 0 0 0 128 0 0 0 0 4194304 0 1 0 0 0 0 0 0 0 0 0 0 536870912
shrinkage=0.1


Tree=3
num_leaves=31
num_cat=10
split_feature=3 3 3 11 4 2 3 31 23 5 3 4 2 12 2 16 11 30 12 31 11 15 6 31 11 16 31 31 30 11
split_gain=816405 194488 165263 47950.8 35767.4 34808 34801.3 27405.7 21183.4 18296.6 16686.1 11346 10496.5 16793.1 18984.6 20446.1 15821 10962.7 10467.6 11972.1 9984.29 9804.42 9780.14 9580.17 7699.46 6552.13 10403.7 6508.71 6336.53 6302.88
threshold=4.2504393438712569 0.98364514016030624 14.867520505931845 0.18354387654598223 2.5897651754244109 0 7.5172335475822063 1 1.5280614874092169 5.7816604599929358 1.8003436910880437 0.97264998801945701 2 -0.14838938839890739 3 -0.12912201722198083 -0.15009488047409833 4 -0.14838938839890739 5 -0.15009488047409833 0.56160555431533499 3.3383662390851079 6 -0.071591643528197024 -0.12912201722198083 7 8 9 -0.032340025055246385
decision_type=2 2 2 2 2 5 2 5 2 2 2 2 5 2 5 2 2 1 2 5 2 2 2 5 2 2 5 5 1 2
left_child=1 3 6 7 10 -4 22 18 12 27 -3 -5 13 14 15 16 17 23 19 -1 -21 -6 -2 -9 -14 26 -16 -8 -12 -10
right_child=2 4 5 11 21 -7 9 8 29 -11 28 -13 24 -15 25 -17 -18 -19 -20 20 -22 -23 -24 -25 -26 -27 -28 -29 -30 -31
leaf_value=0.12142178894772315 0.24725025452095048 0.04779322400216518 1.3361460101055425 0.022820374783612998 0.14376360052608325 0.77301033482059733 0.58356292563056444 0.73750940079525873 0.0083947799309745368 0.67797087151810265 0.24362530355064871 0.074690505242520799 -0.017417579854528263 -0.0085502026157284038 0.17681623456229262 -0.023992248119779642 0.0051981255609682333 0.1629807671758344 0.054660413255955193 0.53891500080514965 0.033984889057698628 0.25448141066567098 0.38657423006453739 0.33773121755753777 -0.0064263697445454187 -0.018990710410358137 0.026317788180274228 0.36230164039885832 0.10423872771874186 0.051972496890702762
leaf_count=4169 17577 110007 1527 214653 23480 4566 1777 759 288554 3754 3448 52481 2760869 348407 5106 4698 2325 3096 9513 1605 518 12130 7063 3218 828621 27599 45092 6422 61617 37504
internal_value=0 -0.0385095 4.354 -0.0811882 0.901187 9.17602 3.5511 -0.106321 -0.111091 4.95127 0.715361 0.330108 -0.130928 0.0147948 0.395066 1.46245 2.31501 3.0589 1.20769 2.20913 4.13766 1.81478 2.87187 4.15686 -0.148803 0.201454 0.416665 4.1141 1.11679 0.134072
internal_count=4892155 4849469 42686 4638787 210682 6093 36593 4371653 4355848 11953 175072 267134 4029790 440300 91893 14096 9398 7073 15805 6292 2123 35610 24640 3977 3589490 77797 50198 8199 65065 326058
cat_boundaries=0 3 130 133 135 136 253 285 404 518 519
cat_threshold=256 262147 2220 0 0 0 0 0 0 0 0 0 0 0 0 0 0 0 536870912 402881548 257 0 0 0 0 0 0 0 0 0 0 0 0 8388608 6293504 0 0 0 0 0 4 0 0 0 0 0 0 0 0 0 0 0 0 0 0 0 0 0 0 0 0 0 0 0 0 0 16777216 0 512 0 0 0 0 0 0 0 0 1 0 0 0 0 0 0 0 0 0 0 0 16 16384 0 33554432 0 0 268435456 67108872 0 0 0 0 0 0 0 0 0 0 0 4194304 0 0 0 0 0 0 0 4096 0 0 4194304 0 0 0 0 0 0 0 0 0 4 1551254596 536871168 32768 201588736 256 3480 0 0 0 0 0 0 0 0 0 0 0 0 0 0 0 0 0 0 0 0 0 0 0 0 0 0 0 0 0 0 0 0 0 0 0 0 0 4 0 0 0 0 0 0 0 0 0 0 0 0 0 0 0 0 0 0 0 0 0 0 0 0 0 16777216 0 512 0 0 0 0 0 0 0 0 0 0 0 0 0 0 0 0 0 0 0 0 16 16384 0 33554432 0 0 268435456 67108872 0 0 0 0 0 0 0 0 0 0 0 4194304 0 0 0 0 0 0 0 4096 0 0 4194304 0 0 0 0 0 0 0 0 0 0 0 0 0 0 0 0 0 16384 0 0 0 0 0 0 0 0 0 0 0 2451796838 538738971 81958 0 0 0 0 0 0 0 0 0 0 0 0 0 0 0 128 0 0 0 0 0 0 0 0 0 0 0 0 0 0 0 0 0 0 3977755066 919577 0 0 0 0 0 0 0 0 0 0 0 0 0 0 0 0 0 0 0 0 0 0 0 0 0 0 0 0 0 0 0 0 0 0 0 0 0 0 0 0 0 0 0 0 0 0 0 0 0 0 0 0 0 0 0 0 3221225472 8192 0 0 0 0 0 0 0 0 0 0 0 0 0 0 0 0 0 0 0 0 0 0 0 0 1048576 0 0 0 0 0 0 0 0 0 0 0 0 0 0 0 0 0 0 0 0 0 0 0 0 0 0 0 0 0 4325408 73728 0 0 0 2310144 163840 0 4 0 0 0 0 0 0 0 0 0 0 0 0 1073741824 0 561152 9216 0 0 0 0 0 0 0 0 0 0 0 0 0 0 0 0 0 0 0 0 570425345 0 0 0 0 0 0 0 0 0 0 0 0 0 0 33554432 0 0 268435456 67108864 0 0 0 0 0 0 0 0 262144 0 0 603979776 16777218 0 0 0 0 0 0 4096 2048
shrinkage=0.1


Tree=4
num_leaves=31
num_cat=12
split_feature=3 3 11 2 31 23 0 11 4 11 31 5 11 2 31 13 11 31 15 11 31 3 3 11 31 31 13 31 11 0
split_gain=665624 168876 123992 49398.8 33155.1 32281.1 27835.8 19879.1 19622.1 18090.9 12763 12211.1 10897.6 10875 8540.89 17370 8992.09 7688.88 7682.67 7040.55 7001.91 6756.4 6629.11 6572.61 6251.9 6156.47 6089.71 6465.84 10001.3 5640.49
threshold=3.4337407929435191 9.9673292003654197 0.26204711349188353 0 1 0.3812813650414974 2 -0.012714215818771066 4.2068803628293647 0.9293246275320447 3 0.96638561357989794 0.0069115934177042598 4 5 -0.14601223343667749 -0.15009488047409833 6 0.65043669075674926 9.4125806699985066 7 5.0671378947989947 15.684219056859581 0.79194396287671742 8 9 -0.14601223343667749 10 -0.15009488047409833 11
decision_type=2 2 2 5 5 2 1 2 2 2 5 2 2 5 5 2 2 5 2 2 5 2 2 2 5 5 2 5 2 1
left_child=2 8 4 22 26 9 7 20 21 24 -5 25 14 -10 15 16 -8 -7 -15 29 -6 -2 -3 -19 -4 -11 27 28 -1 -12
right_child=1 3 5 10 6 17 12 -9 13 11 19 -13 -14 18 -16 -17 -18 23 -20 -21 -22 -23 -24 -25 -26 -27 -28 -29 -30 -31
leaf_value=0.5570177070680753 0.16680233639308753 0.87060062927981174 0.12238875425211336 0.76001905177636209 0.040740433729927146 0.28303439235835687 0.34219311505059768 0.054221012543933113 0.55196363513709812 0.23597847933342342 0.51800111999815479 0.16140370009818414 0.0023027069942658791 0.25049670730219792 -0.014175859721709039 -0.0097887251196189084 0.003953127882660762 0.10436999729745576 0.40607637625053816 0.72372901689571978 6.9234141637593264e-05 0.26290284541104192 1.2400615034551359 0.20190053824201987 0.026386315298762675 0.055274328125754758 0.077267683403877643 0.13786200119217956 0.051945785876793132 0.28603275300120007
leaf_count=1030 18292 732 7035 2803 46215 3409 2747 89929 2169 1968 3835 18059 474667 8454 3391639 8690 1101 30635 5082 1156 502293 12192 1443 8922 184087 41405 14244 5711 633 1578
internal_value=0 3.37532 -0.0402949 6.79587 -0.081159 0.587339 -0.0870725 0.106415 2.5202 0.451017 5.77755 0.923092 -0.11892 3.42828 -0.138713 0.684805 2.45415 1.38864 3.0868 4.98946 0.0349676 2.05237 11.1061 1.26336 0.299278 0.635407 1.15402 1.89221 3.62588 4.51863
internal_count=4892155 57736 4834419 11547 4538899 295520 4517281 638437 46189 252554 9372 61432 3878844 15705 3404177 12538 3848 42966 13536 6569 548508 30484 2175 39557 191122 43373 21618 7374 1663 5413
cat_boundaries=0 3 130 132 235 238 346 466 586 697 791 866 868
cat_threshold=384 262403 6584 0 0 0 0 0 0 0 0 0 0 0 0 0 0 0 536870912 402797700 256 0 0 0 0 0 0 0 0 0 0 0 4194304 8388608 4194304 0 0 2097152 0 0 4 0 0 0 0 0 0 0 0 0 0 0 0 1115684864 0 0 0 0 0 0 0 0 0 0 0 0 16777216 0 512 0 0 0 0 0 0 0 0 1 0 0 0 0 0 0 0 0 0 0 0 16 16384 0 33554432 0 0 268435456 67108872 0 0 0 0 0 0 0 0 0 0 0 4194304 0 8192 0 0 0 0 0 4096 0 0 4194304 0 0 0 0 0 0 0 0 0 4 80740352 294920 0 0 0 0 0 0 0 0 0 0 0 0 0 0 285212672 0 140288 0 0 0 0 4096 2048 0 0 0 0 0 0 4587520 8192 0 0 0 2310144 98320 0 4 0 0 0 0 0 0 0 0 0 0 0 0 1082130432 0 557056 8192 0 0 0 0 0 0 0 0 0 0 0 512 0 0 0 0 0 0 0 0 0 0 0 0 0 0 0 0 0 0 0 0 0 0 0 0 0 0 268435456 67117064 0 0 0 0 0 0 0 0 8650752 536871940 278530 34976 0 0 0 8 0 0 0 0 0 0 0 0 0 0 0 2147483648 2228308793 50379 0 0 0 0 0 0 0 0 0 0 0 0 33554432 17444 256 0 0 0 0 0 0 0 0 0 0 0 0 0 0 0 0 0 0 0 0 0 0 0 0 0 0 0 0 0 0 0 1073741824 0 0 0 0 0 0 0 0 0 0 0 0 0 0 0 0 0 0 0 0 0 0 0 0 0 0 0 0 0 0 0 0 0 0 0 0 0 0 0 0 0 0 4 0 0 0 0 0 0 0 0 0 0 0 0 0 0 285229056 134217728 268436480 0 0 0 0 0 52224 0 0 0 0 0 0 4227072 2105344 0 0 0 2097152 1572864 0 0 0 0 0 0 0 0 0 0 0 0 0 0 1149239296 2097408 524288 8192 0 0 0 0 0 0 0 0 0 0 0 0 0 0 0 0 0 0 0 0 0 0 0 0 0 0 0 0 0 0 0 0 0 0 0 33554432 0 128 268435456 8 0 0 0 0 0 0 0 0 524288 0 0 0 0 131072 0 0 2147483648 0 0 0 0 0 0 0 0 1 0 0 0 0 0 0 0 0 0 536870912 0 0 0 0 0 0 0 2048 0 134217728 0 0 2684354560 134234112 0 0 0 0 0 32768 8192 2099280 0 0 16384 0 0 0 0 0 0 0 0 0 0 0 0 0 0 0 67108864 2097152 524288 0 0 0 0 16384 0 0 0 0 0 1073741824 256 0 0 0 0 0 0 0 0 0 536870912 0 0 0 128 0 0 1024 0 0 0 0 0 0 0 0 0 128 0 8192 65536 0 8 0 0 64 0 0 8716288 0 0 0 0 0 0 0 0 0 0 0 0 0 0 0 0 1 0 0 0 0 0 0 0 0 0 0 0 0 0 0 16384 2052 0 2097153 0 0 0 2151677952 2048 0 0 0 0 0 0 32 0 0 0 32768 65808 524312 0 0 0 0 0 0 0 0 0 0 0 0 0 0 1048576 8192 0 16384 0 0 0 0 0 0 0 0 0 0 1073741824 0 0 0 0 0 0 0 0 0 16777216 0 0 0 0 0 0 0 0 0 0 0 1073741824 0 0 0 0 0 16 131076 0 0 0 0 0 0 0 536870912 0 64 0 0 0 16384 0 0 281034752 0 0 0 0 0 0 0 0 0 0 0 0 0 0 0 0 0 1 0 0 0 2147483648 0 0 0 0 0 0 0 32 32 0 0 0 1761648944 986168 0 0 0 0 0 0 0 0 0 0 0 0 0 0 0 4096 0 20480 0 0 0 0 0 0 0 0 0 0 0 0 0 0 0 0 0 0 0 0 0 524288 0 0 0 0 0 0 0 0 0 0 0 0 0 0 0 0 4718592 16778240 0 0 0 0 0 0 0 0 0 0 0 0 0 0 0 536870912 402797696 256 0 0 0 0 0 0 0 0 0 0 0 0 8388608 4194304 0 0 0 0 0 0 0 0 0 0 0 0 0 0 0 0 0 0 0 0 0 0 0 0 0 0 0 0 0 0 0 0 0 0 0 0 0 0 0 0 0 0 1 114870292 1884648
shrinkage=0.1


Tree=5
num_leaves=31
num_cat=8
split_feature=3 3 3 4 5 3 4 31 3 13 6 30 4 14 31 31 31 5 25 17 31 6 3 23 17 17 13 31 30 17
split_gain=540386 140239 104995 33660.1 30156.1 27363.3 19013.1 15702.2 15088.5 11541.2 10954.2 8935.12 7209.74 7157.59 17323 10197.7 10575.7 7942.3 7248.63 10331.6 16933.1 6762.43 6678.56 6573.46 6502.05 6329.87 6246.35 5802.44 5719.34 5679.65
threshold=3.4337407929435191 12.417424853148633 0.98364514016030624 0.97264998801945701 8.9918436909349619 6.7005349966544694 1.7812075817219337 0 1.0000000180025095e-35 -0.14601223343667749 4.9263134487016922 1 3.3983227691268874 -0.14183729065706493 2 3 4 1.0000000180025095e-35 -0.5202626673901285 -0.12854830946710913 5 1.7504190294685229 1.8003436910880437 0.50355634338859179 -0.12854830946710913 -0.12854830946710913 -0.14601223343667749 6 7 -0.12854830946710913
decision_type=2 2 2 2 2 2 2 5 2 2 2 1 2 2 5 5 5 2 2 2 5 2 2 2 2 2 2 5 1 2
left_child=2 5 3 7 27 11 22 9 13 -1 28 -2 -13 14 26 24 25 -15 -18 20 -20 -8 -4 -22 -16 -17 29 -3 -7 -9
right_child=1 4 6 -5 -6 10 21 8 -10 -11 -12 12 -14 17 15 16 18 -19 19 -21 23 -23 -24 -25 -26 -27 -28 -29 -30 -31
leaf_value=0.21337003171198146 0.4088820423576377 0.70916254384922317 0.036111333300766116 0.041631389944013317 0.96411880510112824 0.48718538962490004 0.093489146422357852 0.32973507889898102 0.010490133203166999 0.023092932566798639 0.50853936054848026 0.14848066856495454 0.24348306085540361 -0.01472061470779288 0.20559155912351162 0.15891079405665265 -0.01284614609724445 0.0019800928444749055 0.13284457000080671 -0.01717840293042365 0.0039393999991931264 0.17164563539685221 0.081415815698132457 0.0488171742453338 -0.019056668311098614 -0.016699007100379661 -0.022476948615367906 0.47694536260381526 0.27304424131250704 -0.036198638529763398
leaf_count=5388 1871 1751 101226 139931 2689 1517 28501 2622 383007 7806 3736 21308 12779 2613684 3771 6247 650401 319576 11437 166472 285168 18102 47953 36857 1957 3057 948 3656 8231 506
internal_value=0 3.04637 -0.036414 -0.0666891 6.90444 2.41463 0.680921 -0.0817121 -0.084917 1.0072 3.62948 1.95906 1.84042 -0.102638 -0.0364871 -0.0436931 -0.0502728 -0.129011 -0.0588654 0.0316761 0.133248 1.23847 0.506743 0.0907555 1.28615 1.01102 2.01894 5.5434 3.07149 2.7054
internal_count=4892155 57538 4834617 4638835 8096 49442 195782 4498904 4485710 13194 13484 35958 34087 4102703 1169443 1165367 1159639 2933260 1150335 499934 333462 46603 149179 322025 5728 9304 4076 5407 9748 3128
cat_boundaries=0 108 109 144 195 314 404 510 511
cat_threshold=0 0 0 0 0 0 0 0 0 536870912 0 0 0 0 0 0 412236813 16641 0 0 0 0 0 0 0 0 0 0 0 0 8388608 6291472 0 0 0 1048576 0 4 0 0 0 0 0 0 0 0 0 0 0 0 67108864 0 0 0 0 0 0 0 0 0 0 0 0 16777216 0 0 0 0 0 0 0 0 0 0 1 0 0 0 0 0 0 0 0 0 0 0 16 16384 0 0 0 0 268435456 67108872 0 0 0 0 0 0 0 0 0 0 0 4194304 0 1 2048 0 0 0 0 0 0 0 0 0 0 0 0 0 0 0 2684354560 2151760816 2048 0 0 0 0 0 0 0 0 0 0 0 4358144 2684878851 1247334 256 0 2113536 0 0 0 0 0 0 0 0 0 0 0 0 0 0 0 0 50331648 45072 0 0 0 0 0 0 0 0 0 0 0 34435424 35921968 16648 0 0 2147684368 262144 0 0 0 0 0 0 0 0 0 0 0 0 0 0 1073741824 0 0 0 0 0 0 0 0 0 0 0 0 0 0 0 0 604012546 1224 0 134217728 0 0 0 0 0 0 0 0 0 3221225492 1048584 33554432 0 0 16818176 4105 0 0 0 16384 0 0 0 0 0 0 0 2097152 0 0 33554432 256 524288 0 0 0 0 0 0 0 0 0 0 0 0 0 0 0 0 0 0 0 0 0 0 0 0 0 0 0 0 0 0 0 0 0 0 0 0 0 0 0 1073741824 8192 4 0 0 0 0 0 0 0 262144 0 0 0 0 0 0 0 0 0 0 0 0 0 0 0 1048576 0 0 0 0 0 0 0 0 0 0 0 0 0 0 270532608 0 0 0 0 0 0 512 0 0 0 0 0 0 0 671090178 236356 0 0 0 1074004354 559120 0 0 0 0 0 0 0 0 0 0 0 0 0 0 0 0 4096 9216 0 0 0 0 0 0 0 0 0 0 0 0 0 0 0 0 0 0 0 0 541065216 0 0 0 0 0 0 0 0 0 0 0 0 0 0 33554432 0 0 0 0 0 0 0 0 0 0 0 0 0 0 8388608 0 134362112 2049 0 0 0 0 0 0 0 0 0 0 0 4489216 8208 0 0 0 2187520 32792 0 4 0 0 0 0 0 0 0 0 0 0 0 0 0 0 561152 9216 0 0 0 0 0 0 0 0 0 0 0 0 0 0 0 0 0 0 0 0 1 0 0 0 0 0 0 0 0 0 0 0 0 0 0 0 0 0 268435456 0 0 0 0 0 0 0 0 0 262144 0 0 536870912 2688
shrinkage=0.1


Tree=6
num_leaves=31
num_cat=11
split_feature=3 3 11 2 23 23 4 5 3 2 4 11 30 2 13 17 11 30 2 11 3 30 6 4 28 27 2 0 2 2
split_gain=438943 143998 68167.6 39439.9 20818.8 20246.1 18033.3 14633.6 12478.8 9302.13 8979.63 8977.84 8742.17 8517.24 25519.2 20537.5 19578.5 9970.38 12365.6 7870.05 7164.67 6845.21 6371.69 5979.79 5732.9 5616.92 5565.23 5543.71 5415.69 5265.86
threshold=2.6170422420157817 9.1506306494376819 0.20316968578245756 0 1.4463036616505087 1.5280614874092169 4.2068803628293647 0.96638561357989794 15.684219056859581 1 -1.0000000180025095e-35 -0.032340025055246385 2 3 -0.14601223343667749 -0.12854830946710913 -0.15009488047409833 4 5 1.0372665783326591 1.0000000180025095e-35 6 4.9263134487016922 15.52668667466404 -0.70209645927876563 0.068776364421974615 7 8 9 10
decision_type=2 2 2 5 2 2 2 2 2 5 2 2 1 5 2 2 2 1 5 2 2 1 2 2 2 2 5 1 5 5
left_child=2 6 5 23 7 10 12 20 22 -8 13 -7 29 14 15 16 17 28 25 -9 -4 -11 -5 -3 -20 -19 -14 -12 -1 -2
right_child=1 3 4 8 -6 11 9 19 -10 21 27 -13 26 -15 -16 -17 -18 18 24 -21 -22 -23 -24 -25 -26 -27 -28 -29 -30 -31
leaf_value=0.26717814075622187 0.58545173965166952 0.72511708048693124 0.0058687336970122787 0.30742888408488617 0.14280341287035123 0.008699664859788566 0.16040502456393135 0.057676096424787542 0.5873728331198087 0.52047618155495579 0.14479471815606421 0.052009860082338981 0.18096620162813726 -0.011623674644930339 -0.0099674572719470316 -0.017981567963568347 0.0083481125078364964 0.4922661869292384 0.054441048166461531 0.14297570608688276 0.040010863071777779 0.27971816007035993 0.53026715080762754 1.03541576409243 0.26468803271428798 1.7217665311537294 0.10660109560234042 0.0045676074696390833 0.053056605645581081 0.23997906865203258
leaf_count=1592 563 1148 128757 5052 18477 304938 6848 56013 3967 1359 2831 56773 14600 3592832 114350 11938 7222 1675 1667 13405 117601 10675 1720 1353 5842 38 32962 369137 4563 2257
internal_value=0 2.28695 -0.039314 5.30865 0.396309 -0.0718493 1.70935 0.335939 4.46116 2.54283 -0.0917936 0.154975 1.39698 -0.106525 0.127842 0.881173 1.44164 2.07952 2.73725 0.741479 0.221668 3.07317 3.64027 8.89427 2.17723 5.16525 1.29462 0.0563887 1.08783 3.10776
internal_count=4892155 82504 4809651 13240 334253 4475398 69264 315776 10739 18882 4113687 361711 50382 3741719 148887 34537 22599 15377 9222 69418 246358 12034 6772 2501 7509 1713 47562 371968 6155 2820
cat_boundaries=0 3 6 7 9 10 11 12 15 17 18 21
cat_threshold=384 262403 6588 148136514 3593994456 2 2048 470041604 256 103 201326592 2176 4093640868 286978 39328 0 65536 262144 2098180 939524098 6
shrinkage=0.1


Tree=7
num_leaves=31
num_cat=15
split_feature=3 3 3 5 5 2 5 2 12 16 2 15 31 30 3 31 31 7 0 30 12 31 2 30 31 2 12 15 12 31
split_gain=366285 103801 59523.7 21650.1 21590.8 18764.2 15045.4 14227.5 16024.6 18653.8 25659.6 14052.5 16190.6 10664.3 10398.1 9125.5 7692.16 7212.83 6288.78 5991.79 5696.3 6854.59 5546.42 5284.5 5158.93 5098.17 4793.35 4697.41 5943.69 8158.38
threshold=5.0671378947989947 0.98364514016030624 15.684219056859581 0.96638561357989794 2.5714772290509105 0 10.596935306405975 1 -0.14838938839890739 -0.12912201722198083 2 -0.14016042357183747 3 4 1.8003436910880437 5 6 1.828913045011141 7 8 -0.14838938839890739 9 10 11 12 13 0.10098393954450023 -0.14016042357183747 -0.14838938839890739 14
decision_type=2 2 2 2 2 5 2 5 2 2 5 2 5 1 2 5 5 2 1 1 2 5 5 1 5 5 2 2 2 5
left_child=1 3 5 7 14 -2 -4 8 9 10 11 12 23 22 -3 -9 -15 -6 25 24 21 -16 -7 -1 -14 -17 -10 28 29 -27
right_child=2 4 6 -5 17 13 -8 15 26 -11 -12 -13 19 16 20 18 -18 -19 -20 -21 -22 -23 -24 -25 -26 27 -28 -29 -30 -31
leaf_value=0.61813810439650752 0.4959563037551713 0.03124758924963858 0.51137909512282675 0.031135228555579771 0.10640738121470597 0.23617180687390527 0.85844140228909349 0.047210091232655085 -0.0066499057933047199 -0.015239513865391985 0.031435683680545889 -0.036528180118031738 0.41671477110412503 0.33523243710299849 0.34936028998811763 -0.018636412020292481 0.17382831079644093 0.20402397240138714 -0.011191734970071771 0.10915478981528354 0.068398687701761246 0.11517378087156534 0.45032307856867304 0.30429793825261048 0.19003029892833143 0.082923857269419518 0.017765001821638194 -0.0027250801665946517 -0.0031119623609475841 0.015938830166583907
leaf_count=996 3296 109540 3599 156220 25894 2079 1913 28926 291701 34750 45314 3078 1228 3703 1447 140976 15218 10696 3131519 9994 63523 9188 3217 1337 5929 24607 111018 497368 84259 69622
internal_value=0 -0.0227488 3.31888 -0.0545991 0.647956 2.71797 6.31831 -0.0673525 0.0906974 0.443454 0.748506 1.6196 1.934 2.40984 0.508233 -0.0874341 2.05577 1.34943 -0.0915344 1.59459 0.797389 1.47474 3.66859 4.40348 2.29452 -0.0133914 0.000805793 0.022691 0.161858 0.334418
internal_count=4892155 4859130 33025 4638842 220288 27513 5512 4482622 505345 102626 67876 22562 19484 24217 183698 3977277 18921 36590 3948351 17151 74158 10635 5296 2333 7157 816832 402719 675856 178488 94229
cat_boundaries=0 3 6 8 44 45 162 266 268 269 375 377 378 414 417 520
cat_threshold=536872320 278530 6584 3698738372 258 38920 470024192 256 0 0 0 0 0 0 0 0 0 0 0 0 0 0 0 0 402789376 16640 0 0 0 0 0 0 0 0 0 0 0 4300800 2155880451 2181236 256 0 2149662736 1310720 2720 0 0 0 0 0 0 0 0 0 1024 0 0 0 0 0 0 0 0 0 0 0 0 0 0 0 0 0 0 0 0 0 0 0 0 0 0 0 4 0 0 0 0 0 0 0 0 0 0 0 0 0 0 524288 0 0 0 0 16384 0 0 0 0 0 1090519040 1073748224 512 0 0 0 0 0 0 0 0 1 0 0 0 0 0 0 1024 0 0 0 0 16 16384 0 33554432 0 128 3489660928 67117064 65536 0 0 0 0 64 0 0 8454144 0 0 4194304 0 5 0 0 0 0 0 4096 0 0 4194304 0 0 0 0 0 0 0 0 0 0 0 0 0 0 268435456 2048 139264 0 0 0 0 0 0 0 0 0 0 0 0 4620288 8192 0 0 0 2149793792 36864 0 0 0 0 0 0 0 0 0 0 0 0 0 0 1115684864 256 524288 16384 0 0 0 0 0 0 0 0 0 0 0 0 0 0 0 0 0 0 0 0 33554432 0 0 0 0 0 0 0 0 0 0 0 0 0 0 33554432 0 0 268435456 67108872 0 0 0 0 0 0 1073741824 4 262144 64 80936976 950280 1936 0 0 0 0 0 0 0 0 0 0 0 0 0 0 268435456 0 0 0 0 0 0 0 0 0 0 0 0 0 0 262144 0 0 0 0 1092747280 786440 0 0 0 0 0 0 0 0 0 268435456 0 0 0 0 0 0 537432064 13312 0 0 0 0 0 0 0 0 0 0 0 0 0 0 0 0 0 0 0 0 574619649 1048576 0 0 0 0 0 0 0 0 0 0 0 0 0 35651584 0 0 0 8192 0 0 0 0 0 0 0 0 262144 0 0 268435456 3356770306 2282750296 1936 0 0 0 0 0 0 0 0 0 0 0 0 0 0 0 2684354560 1058816 0 0 0 0 0 0 0 0 0 0 0 0 3526247732 528688 0 0 0 438272 4105 587303176 1103418373 26432 0 0 0 0 0 0 67108864 0 0 0 0 0 0 0 0 0 0 0 0 0 0 0 0 0 36962304 65544 0 0 0 0 0 0 0 0 0 0 0 0 0 0 0 0 0 0 0 33554432 8389633 2149664768 4096 0 0 0 536907776 9216 256 0 0 0 0 0 0 0 0 0 0 0 0 0 0 0 0 0 0 0 541065216 68157568 0 0 0 0 0 0 0 0 0 0 0 0 0 262144 0 0 0 0 0 0 0 0 0 8192 0 0 786432
shrinkage=0.1


Tree=8
num_leaves=31
num_cat=15
split_feature=3 11 3 23 4 5 31 2 2 3 11 31 30 31 12 2 13 2 17 11 30 31 17 31 0 23 2 0 2 11
split_gain=294287 87521.9 50770 26096.3 24821.6 15647 13122.1 13014 11811.9 9643.93 9189.36 8202.05 7937.6 7743.89 6311.94 6167.8 10184.8 14804.4 14649.9 15741.5 9153.85 10376.6 9056.35 16727.3 5776.1 5716.67 5529.98 5465.43 5334.77 5636.19
threshold=5.0671378947989947 0.42886649200192384 15.684219056859581 0.27926496298859621 0.97264998801945701 4.1765688445219231 0 1 2 1.0000000180025095e-35 1.5867892369539682 3 4 5 -0.14838938839890739 6 -0.14601223343667749 7 -0.12854830946710913 -0.15009488047409833 8 9 -0.12854830946710913 10 11 2.164518425985118 12 13 14 1.2531504799338877
decision_type=2 2 2 2 2 2 5 5 5 2 2 5 1 5 2 5 2 5 2 2 1 5 2 5 1 2 5 1 5 2
left_child=1 4 5 8 6 25 14 -4 10 15 27 -6 -7 -5 -1 -8 17 18 19 20 -17 -22 23 -19 -25 -2 -14 -3 29 -15
right_child=2 3 7 13 11 12 9 -9 -10 -11 -12 -13 26 28 -16 16 -18 22 -20 -21 21 -23 -24 24 -26 -27 -28 -29 -30 -31
leaf_value=0.15994082856727626 0.15843074213621239 0.018202153189026619 0.83849644720802008 0.30641028832654954 0.14321047081931917 0.56121625902732164 -0.014578685653541685 0.47962845062343273 0.017941833177097747 0.007608286840387498 0.13768792858798659 0.029683897998029625 0.47659197663342595 0.12617562225006673 0.031646109403528709 0.087849793236003615 -0.0089748681183418107 0.12479167624515031 -0.015719793187478442 -0.0055797944073017226 0.56698950194196707 0.21008155683897636 -0.014177279279341735 0.04116120557661563 0.0028040541776595926 0.2962817551072035 0.26410407899848692 0.075752161951908967 0.06052883194028319 0.24601195895493527
leaf_count=6543 14227 25784 1434 2551 6643 1470 1070100 4004 82475 434616 16577 147461 1560 19751 9265 5975 2275540 12359 12368 6576 923 7084 235989 43818 376661 3815 6532 45939 9217 4898
internal_value=0 -0.020419 2.97408 0.615511 -0.0487427 2.4239 -0.0622636 5.76686 0.451625 -0.0654721 0.705775 0.345889 3.45808 1.38405 0.846943 -0.0806727 -0.0572686 0.0480521 0.70257 1.22016 1.82027 2.5188 0.0158198 0.101742 0.0680213 1.87579 3.05606 0.550764 1.25622 1.49927
internal_count=4892155 4859113 33042 207192 4651921 27604 4497817 5438 170775 4482009 88300 154104 9562 36417 15808 4047393 2977293 701753 32926 20558 13982 8007 668827 432838 420479 18042 8092 71723 33866 24649
cat_boundaries=0 114 117 120 247 248 375 378 380 381 417 536 538 541 543 546
cat_threshold=0 0 0 0 0 0 0 0 0 536870912 0 0 0 0 0 536870912 403846144 256 0 0 0 0 0 0 0 0 0 0 0 4194304 8388608 6293524 0 0 2097152 0 0 4 0 0 0 0 0 0 0 0 0 0 0 0 8388608 2097152 0 0 0 0 0 0 0 0 0 0 0 16777216 4096 512 0 0 0 0 0 0 0 0 1 0 0 0 0 0 0 0 0 0 0 0 16 16384 0 33554432 0 0 268435456 8 0 0 0 0 0 0 0 0 0 0 0 4194304 0 0 0 0 0 0 0 4096 256 262147 2444 2485273764 268435714 39068 0 0 0 0 0 0 0 0 0 1024 0 0 0 0 0 0 9216 0 0 0 0 0 0 0 0 0 0 0 0 0 0 0 0 0 0 0 0 4 0 0 0 0 0 0 0 0 0 0 0 0 1082130432 256 0 0 0 0 0 0 0 0 0 0 0 0 1073741824 2560 0 0 0 0 0 0 0 0 1 0 0 0 0 0 0 0 0 0 0 0 0 0 0 33554432 0 0 268435456 67108876 0 0 0 0 0 64 0 0 0 0 0 0 0 8196 0 0 2160066560 33554432 0 4096 0 0 4194304 0 0 1073742981 0 0 0 0 0 0 4 3200 0 0 0 0 0 0 0 0 0 0 0 0 0 0 285212672 134219776 132096 0 0 0 0 2048 2048 0 0 65536 0 0 0 4456448 0 0 0 1 2097152 1572864 0 0 0 0 0 0 0 0 0 268435456 0 0 0 0 1082130432 0 0 8192 0 0 0 0 0 0 0 0 0 0 0 0 0 0 0 0 0 0 0 0 536870912 0 0 0 0 0 0 0 0 0 0 0 0 0 0 33554432 0 0 268435456 67239944 0 0 0 0 0 0 0 0 262144 0 0 268435456 0 131072 0 0 0 33554432 0 0 0 0 0 0 0 0 0 0 0 0 0 0 512 587303304 3353665029 26432 470025216 256 103 0 0 0 0 0 0 0 0 0 0 0 0 0 0 0 0 0 0 0 0 0 0 0 0 0 0 0 0 0 439281012 537206811 65538 0 0 2147631104 4097 0 0 0 0 0 0 0 0 0 1024 0 0 0 0 270532608 524352 0 0 0 139460608 32 66048 0 0 35913728 0 0 0 0 0 0 0 0 0 0 0 0 0 0 0 0 0 0 0 0 0 0 2149597184 4096 0 1073741824 256 528384 9216 0 0 0 0 0 0 0 0 0 0 0 0 0 0 0 0 0 0 0 0 541065216 0 0 0 0 0 0 0 0 0 0 0 0 0 0 0 0 0 2147483648 67117056 0 0 0 0 0 0 0 0 8650752 0 0 0 0 0 0 0 0 0 0 0 0 0 0 0 1048576 80805968 32776 536872224 278530 2216 2550473666 70754 3571860646 805830674 39094
shrinkage=0.1


Tree=9
num_leaves=31
num_cat=16
split_feature=3 3 11 2 23 31 11 5 31 0 30 30 4 12 31 31 31 0 31 5 11 11 2 14 4 2 31 11 2 2
split_gain=245469 81178.2 40832.7 23798.7 18392.7 13146 12265.4 11804.8 10059.5 9059.64 7736.69 7671.56 6349.59 5984.39 9844.57 5904.97 5458.97 5248.3 5132.12 4860.56 4825.05 4578.57 4340 4103.35 3715.27 3678.86 3507.72 3499.96 3483.57 3372.07
threshold=2.6170422420157817 9.1506306494376819 0.085414830363605573 0 0.88919281356019708 1 0.72325363054905367 2.5714772290509105 2 3 4 5 5.0154379565318417 -0.14838938839890739 6 7 8 9 10 1.0000000180025095e-35 0.54662134742077584 9.4125806699985066 11 -0.14183729065706493 13.909571487259086 12 13 -0.081404548146434691 14 15
decision_type=2 2 2 5 2 5 2 2 5 1 1 1 2 2 5 5 5 1 5 2 2 2 5 2 2 5 5 2 5 5
left_child=2 7 5 24 6 23 17 13 21 18 -9 -10 -12 14 -2 -8 -13 -4 -7 -17 -6 -5 -15 -1 -3 -14 -24 -20 -16 -22
right_child=1 3 4 8 20 9 15 10 11 -11 12 16 25 22 28 19 -18 -19 27 -21 29 -23 26 -25 -26 -27 -28 -29 -30 -31
leaf_value=0.13478991629813294 0.40933130555033065 0.53438278233121073 -0.002699768422243115 0.45469798066819189 0.069717546729554603 0.03339628135431838 0.17439231739271741 0.45122196139998388 0.48747907990312322 -0.0087672790994847479 0.12822741626610382 0.37428962671358257 0.37399856450335933 0.28787264934825629 0.25227758452515325 0.025954377819045478 0.16140081066134621 0.02022058940343778 -0.0030190079052126329 0.075544524401438259 -0.062093191410008922 0.97591506397590955 0.18594816165312553 0.039116251589379647 0.77343628864780256 0.20607354655576793 0.065299669313344078 0.012876476568215939 0.089364711356691329 0.18389251832108
leaf_count=7502 1443 1151 179802 2883 40454 52191 3742 1041 1306 3462064 13314 1669 1618 969 1682 48773 4530 224809 554394 33232 614 179 2598 11139 1494 7694 33059 184660 6084 6065
internal_value=0 1.7082 -0.0292523 3.98039 0.230515 -0.0619359 0.173163 1.27626 3.298 -0.065609 1.8498 2.66496 1.72455 0.980119 1.70073 0.516716 2.19229 0.100356 0.0309302 0.460449 0.827181 4.83588 0.798934 0.775781 6.66888 2.35874 0.741399 0.00952624 1.24928 1.61461
internal_count=4892155 82714 4809441 13212 537491 4271950 490358 69502 10567 4253309 23667 7505 22626 45835 9209 85747 6199 404611 791245 82005 47133 3062 36626 18641 2645 9312 35657 739054 7766 6679
cat_boundaries=0 3 130 224 226 227 228 335 442 544 546 666 669 672 779 782 785
cat_threshold=384 278787 22972 0 0 0 0 0 0 0 0 0 0 0 0 0 0 0 2147483648 411186596 256 0 0 0 0 0 0 0 0 0 0 0 0 8388608 4196384 0 0 0 0 0 4 0 0 0 0 0 0 0 0 0 0 0 0 0 0 0 0 0 0 0 0 0 0 0 0 0 0 1073741824 512 0 0 0 0 0 0 0 0 1 0 0 0 0 0 0 0 0 0 0 0 16 16384 0 33554432 0 0 268435456 8 0 0 0 0 0 0 0 0 0 0 0 4194304 0 8192 0 0 0 0 0 4096 0 0 4194304 0 1048576 0 0 0 0 0 0 0 4 0 0 0 0 0 0 0 0 0 0 0 0 0 0 287309824 524288 134362112 2048 0 0 0 6144 2048 0 0 0 0 0 0 4325408 16 0 0 0 2179344 65552 0 0 0 0 0 0 0 0 0 0 0 0 0 0 8388608 0 561152 0 0 0 0 0 0 0 0 0 0 0 0 0 0 0 0 0 0 0 0 0 33554432 0 0 0 0 0 0 0 0 0 0 0 0 0 0 0 0 0 268435456 67117056 80805904 425992 2048 2208 0 0 0 0 0 0 0 0 0 0 0 0 0 0 16777216 0 8192 0 0 0 0 0 0 0 0 0 0 0 0 0 0 0 0 0 2284048400 4104 0 0 0 0 0 0 0 0 0 268435456 0 0 0 0 0 0 561152 25600 0 0 0 0 0 0 0 0 0 0 0 512 0 0 0 0 0 0 0 0 541065216 128 0 0 0 0 0 0 0 0 0 0 0 0 0 33554432 0 0 268435456 0 0 0 0 0 0 0 0 0 262144 0 0 536870912 16777216 0 0 0 0 0 0 0 0 0 0 0 0 0 0 16384 2048 0 1 0 0 0 4718592 16384 0 0 0 0 0 0 32 0 0 0 0 16785680 657432 0 0 0 0 0 0 1052672 0 0 0 0 0 0 0 0 20480 0 16384 0 0 0 0 0 0 0 0 0 0 0 0 0 0 0 0 0 0 0 0 0 524288 0 0 0 0 0 0 0 0 0 0 0 0 0 0 0 0 536870912 16778240 0 0 0 0 0 0 0 0 0 8192 0 8192 268632320 0 0 0 0 0 0 0 0 0 0 0 0 0 0 8388608 2048 8 0 0 0 0 2147483648 1152 0 0 0 0 0 0 262144 0 0 0 0 3238141984 579848 0 4 0 0 0 0 0 0 0 0 0 0 0 0 1174405120 256 0 25600 0 0 0 0 0 0 0 0 0 0 0 0 0 0 0 0 0 0 0 0 0 0 0 0 0 0 0 0 0 0 0 0 0 0 0 0 0 0 0 12 0 0 0 0 0 0 16 4 2550409159 1119334 0 0 0 0 0 0 0 0 0 536870912 0 0 0 0 0 0 0 18432 0 0 0 0 2684354560 16400 0 0 0 0 0 4194304 0 2097152 256 0 2097152 0 0 0 0 0 0 0 0 0 0 0 0 0 0 0 41943040 256 524288 0 0 0 0 16384 0 0 16777216 0 0 1090519040 256 0 0 0 0 0 0 0 0 0 536870912 0 0 0 128 0 0 0 0 0 0 0 0 0 0 262144 0 128 2147483648 67108864 0 0 8 0 0 64 0 0 327680 0 0 0 0 0 0 0 0 0 0 0 0 0 0 0 0 1 536871040 258 6400 536871968 278530 34992 0 0 0 0 0 0 0 0 0 0 0 0 0 0 16777216 2048 134222848 0 0 0 0 71680 0 0 0 0 0 0 0 4325376 8192 0 0 0 2162688 4096 0 0 0 0 0 0 0 0 0 0 0 0 0 0 109052928 8192 0 0 0 0 0 0 0 0 0 0 0 0 0 0 0 0 0 0 0 0 0 0 0 0 0 0 0 0 0 0 0 0 0 0 0 0 0 33554432 0 0 272629760 12 0 0 0 0 0 1 0 0 1074003968 524352 0 0 65536 872416896 705454336 4 536879360 16513 256
shrinkage=0.1


Tree=10
num_leaves=31
num_cat=12
split_feature=3 3 4 6 11 2 6 6 31 13 23 30 12 2 30 31 0 11 12 11 2 1 30 31 4 2 19 12 11 0
split_gain=195947 64046.6 34227.8 16481.7 13908.5 12035.5 8623.47 8516.06 8413.97 9115.13 7392.64 6821.8 6677.75 6434.45 5228.54 5088.59 5067.34 5019.14 4956.73 4525.9 6498.41 5527.61 4766.72 4384.11 4169.05 4103.06 3929.7 5879.99 3890.09 3774.21
threshold=2.6170422420157817 9.9673292003654197 0.97264998801945701 8.1022078679348617 0.026537402654179587 0 4.1323398438934005 0.95644542466023064 1 -0.14601223343667749 0.27926496298859621 2 -0.14838938839890739 3 4 5 6 0.53680844280253825 62.75603258532567 -0.15009488047409833 7 -0.29461562034141747 8 9 8.2496683313417485 10 0.69014145487972034 -0.14838938839890739 0.76250524902200434 11
decision_type=2 2 2 2 2 5 2 2 5 2 2 1 2 5 1 5 1 2 2 2 5 2 1 5 2 5 2 2 2 1
left_child=2 5 4 11 8 25 14 18 9 19 29 -3 23 15 -7 -13 -10 -9 -4 20 -1 22 -22 -12 -8 -2 -16 -28 -29 -6
right_child=1 3 7 -5 10 6 24 17 16 -11 12 13 -14 -15 26 -17 -18 -19 -20 -21 21 -23 -24 -25 -26 -27 27 28 -30 -31
leaf_value=0.084794710284372604 0.26641463468260118 0.48409182868150558 0.023066551088650633 0.56624545777077373 -0.013880717917778668 0.14799001953336074 0.1558564065063813 0.049569178144984051 0.0080509402957896336 0.00050894882258262686 0.38855562105330582 0.32771441864164835 0.026397034206053462 0.34036147097082736 0.047493960673417428 0.051875182511457757 -0.0076072338571817376 0.11020026754131135 1.3086067112286885 0.0302977927097778 0.48860629859332366 0.93828463852405553 0.16556446476065237 0.096276468345827065 0.30499872811952877 0.63207578746816862 0.25064235764951187 0.054160423154305387 0.15934019165987931 0.0090456505617877419
leaf_count=1617 2727 1610 133921 3145 86644 12590 10386 46973 218623 6677 535 995 81381 3777 23762 2038 3781516 19248 30 1489 833 151 1078 9733 2287 354 2524 11359 5093 419059
internal_value=0 1.5267 -0.0262454 3.70913 -0.0438255 1.17162 1.08348 0.37857 -0.0650216 0.776198 0.0985338 2.97954 0.359851 2.52865 0.913204 1.43146 -0.0675144 0.671924 0.233545 1.77396 2.36932 3.54107 3.09801 1.11977 1.82771 3.10337 0.745743 1.08524 0.867206 0.0511749
internal_count=4892155 82647 4809508 11565 4609336 71082 68001 200172 4011984 11845 597352 8420 91649 6810 55328 3033 4000139 66221 133951 5168 3679 2062 1911 10268 12673 3081 42738 18976 16452 505703
cat_boundaries=0 3 109 110 113 114 190 192 195 196 286 289 291
cat_threshold=536872320 262146 6408 0 0 0 0 0 0 0 0 0 0 0 0 0 0 0 2684354560 2551395629 16640 0 0 0 0 0 32768 0 0 0 0 0 0 545259520 6359060 0 0 0 0 0 4 0 0 0 0 0 0 0 0 0 0 0 0 0 0 0 0 0 0 0 0 0 0 0 0 0 0 0 0 0 0 0 0 0 0 0 0 1 0 0 0 0 0 0 0 0 0 0 0 16 16384 0 0 0 0 0 0 0 0 0 0 0 0 0 0 0 0 0 4194304 2208 1282819650 2315780248 32 2720 0 0 0 0 0 0 0 0 0 0 0 0 0 0 278921216 524288 134362120 18433 0 0 0 2048 2176 0 0 0 0 0 0 4374528 864305 0 0 0 0 0 0 0 0 0 0 0 0 0 0 0 0 0 0 0 0 0 0 0 0 0 0 0 0 0 0 0 0 0 0 0 0 0 0 0 0 0 0 0 574619648 1048576 68157440 32768 541065216 33554432 16 1284 0 0 0 0 0 0 0 0 0 0 0 0 0 0 0 0 0 0 0 0 0 0 2048 0 0 0 0 0 0 0 0 0 0 0 221184 364544 0 0 0 0 0 0 0 0 0 0 0 0 0 0 0 0 4096 24576 0 0 0 0 0 0 0 0 0 0 0 0 0 0 0 0 0 0 0 0 0 0 0 0 0 0 0 0 0 0 0 0 0 0 0 33554432 536871936 262146 256 402916288 65536
shrinkage=0.1


Tree=11
num_leaves=31
num_cat=11
split_feature=4 2 6 2 12 16 31 4 31 2 31 8 31 6 4 14 14 0 14 4 4 31 16 12 14 4 2 0 14 12
split_gain=130083 37258.1 26702 14564.9 17876.2 16607 26833 13059.7 12980.5 10279.6 9788.51 8205.08 6882.55 6763.03 5241.38 5122.92 5092.77 4977 4733.14 4626.96 4542.53 4511.85 4457.47 5354.87 4160.52 4149.44 4039.67 4362.12 4601.55 6742.55
threshold=3.3983227691268874 0 0.95644542466023064 1 -0.14838938839890739 -0.12912201722198083 2 12.292456299854132 3 4 5 1.8344669600075183 6 1.7504190294685229 -1.0000000180025095e-35 -0.14183729065706493 -0.14183729065706493 7 -0.14183729065706493 9.8667835187467023 11.483898706151656 8 -0.12912201722198083 -0.14838938839890739 -0.14183729065706493 13.909571487259086 9 10 -0.14183729065706493 -0.14838938839890739
decision_type=2 5 2 5 2 2 5 2 5 5 5 2 5 2 2 2 2 1 2 2 2 5 2 2 2 2 5 1 2 2
left_child=2 7 3 4 5 6 15 -2 19 16 24 -4 18 25 -6 -1 17 -8 22 -3 -15 -11 23 -12 -5 -10 27 28 29 -14
right_child=1 8 11 10 14 -7 9 -9 13 21 12 -13 26 20 -16 -17 -18 -19 -20 -21 -22 -23 -24 -25 -26 -27 -28 -29 -30 -31
leaf_value=0.3469367306900113 0.28254418058595138 0.21025798854077241 0.023794319982443288 0.08694794239931887 -0.0037871529735623586 -0.01200185582174559 0.062837416074773653 0.59727715473743648 0.060342716906573758 0.11885570504722745 0.12760450818999289 0.07653329792585073 0.024564619240431473 0.13568508310372993 0.020880333008703893 -0.037874728480555453 -0.03214040772174382 0.16119605766633668 0.0070347499407103949 0.41541396018105098 0.30683668777390133 0.02265997975529567 -0.012468534013422503 0.016745955520195584 0.016792508645578668 0.17999651475244569 -0.011942604975927607 -0.0078265422804870768 -0.0036112666989428395 -0.0055874854075207581
leaf_count=3968 4088 3979 186492 15110 332041 33995 8137 1946 25555 5430 11148 35043 162260 16462 116312 379 2258 14191 59354 1519 1712 47214 6438 7153 19188 3269 1029948 1736464 864505 136597
internal_value=0 1.48204 -0.0177604 -0.0340499 0.116514 0.467195 0.7119 3.83412 1.21073 0.575502 -0.0550241 0.321367 -0.0595701 1.04012 0.026121 3.12667 1.10933 1.25452 0.223486 2.66454 1.51808 0.326028 0.590989 0.842751 0.476856 0.739129 -0.0656278 -0.0465196 0.000865271 0.107832
internal_count=4892155 58530 4833625 4612090 563925 115572 81577 6034 52496 77230 4048165 221535 4013867 46998 448353 4347 24586 22328 84093 5498 18174 52644 24739 18301 34298 28824 3929774 2899826 1163362 298857
cat_boundaries=0 3 6 42 149 151 268 374 376 495 498 500
cat_threshold=536872320 278531 22952 2623947972 536871170 38920 0 0 0 0 0 0 0 0 0 0 0 0 0 0 0 0 134362112 256 0 0 0 0 0 0 0 0 0 0 0 38256672 8912899 6293552 0 0 2149801984 1314816 0 0 0 0 0 0 0 0 0 0 0 0 0 0 0 0 140288 0 0 0 0 0 3072 0 0 0 0 0 0 4587520 8192 0 0 0 2113536 98304 0 0 0 524288 0 0 0 0 0 0 0 0 0 0 1182793728 16777216 0 0 0 0 0 0 0 0 0 0 0 0 0 0 0 0 0 0 0 0 0 0 0 0 0 0 0 0 0 0 0 0 0 0 0 0 0 0 0 0 268435456 67108868 0 0 0 0 0 0 1744830464 4 139264 576 0 536870912 16777216 470025216 256 0 0 0 0 0 0 0 0 0 1024 0 0 0 0 0 0 0 0 0 138412032 0 0 0 0 0 0 0 0 0 0 0 0 0 0 0 0 0 4 0 0 0 0 0 0 0 0 0 0 0 0 0 0 524288 0 0 0 0 0 0 0 0 0 0 1090519040 1073748224 512 0 0 0 0 0 0 0 0 1 0 0 0 0 0 0 1024 0 0 0 0 16 16384 0 33816576 0 128 0 0 0 0 0 0 0 64 16 0 8716288 16384 0 4194304 0 8197 0 0 8388608 0 0 4096 0 0 4194304 0 0 32 0 0 0 0 16 0 0 0 0 0 0 0 0 0 0 1048576 9437184 263168 0 0 0 2097152 0 0 0 0 0 0 0 0 0 0 0 0 0 0 0 0 0 0 0 0 0 0 0 0 0 0 0 4096 9216 256 0 0 16384 32 134217728 0 0 0 134479872 32 0 0 0 0 0 0 0 0 0 536870912 0 0 0 128 1 0 0 0 0 0 0 256 0 0 2097152 65536 0 8192 0 65536 0 8 0 0 8192 536870912 0 524288 64 0 67108864 403251854 210018 0 0 0 0 0 0 0 0 0 536870912 0 0 0 0 295698432 526400 0 0 0 0 0 67181056 0 0 0 0 0 0 0 0 0 0 0 0 0 0 0 0 0 0 0 0 0 0 0 0 0 0 0 0 109051904 2105600 0 0 0 0 0 0 0 0 0 0 0 0 0 0 0 0 0 0 0 0 0 0 0 0 0 0 0 0 0 0 0 0 0 0 0 0 0 0 0 0 4026531840 84041740 0 0 0 0 0 0 0 0 0 0 0 0 0 0 0 0 0 0 0 0 0 0 0 0 1048576 1083716146 2550669564 182 670271600 952712
shrinkage=0.1


Tree=12
num_leaves=31
num_cat=15
split_feature=3 11 3 23 4 7 2 0 11 5 31 31 30 14 31 2 14 2 11 17 30 31 31 31 17 0 11 2 30 17
split_gain=140115 40107.7 30141.7 13760.2 12064 9925.75 8392.6 7519.46 8038.61 6774.07 6384.72 5641.64 5293.82 5257.15 5231.09 5257.51 4834.31 10761.2 10222.4 12288.3 8362.65 10345.3 6483.78 6753.92 5504.15 4282.3 4183.98 4169.24 4140.61 3893.45
threshold=4.2504393438712569 0.42886649200192384 14.867520505931845 1.4463036616505087 1.0000000180025095e-35 5.927553444523153 0 1 1.6162279508086812 15.412210152819013 2 3 4 -0.14183729065706493 5 6 -0.14183729065706493 7 -0.15009488047409833 -0.12854830946710913 8 9 10 11 -0.12854830946710913 12 0.046163211890654914 13 14 -0.12854830946710913
decision_type=2 2 2 2 2 2 5 1 2 2 5 5 1 2 5 5 2 5 2 2 1 5 5 5 2 1 2 5 1 2
left_child=1 4 5 6 10 12 7 -3 -9 27 13 -6 -2 -1 -14 -16 17 18 19 20 -12 -22 29 24 -24 26 -13 -4 -29 -19
right_child=2 3 9 -5 11 -7 -8 8 -10 -11 16 25 14 -15 15 -17 -18 22 -20 -21 21 -23 23 -25 -26 -27 -28 28 -30 -31
leaf_value=0.14777744619848993 0.29610770171494766 0.014712402535166993 -0.074517429478918068 0.15073534678334041 0.082815298169542487 0.2833860053495455 0.004787789678214519 0.054720576381464742 0.14312840011860314 0.55746207183875407 0.061381264525306428 0.011938674334566378 0.24799540177496482 0.0042473166204559454 0.50663440401384441 0.098726396962295015 -0.0077448520355842465 0.1084830045214365 -0.0055371599997889615 -0.018319983210061865 0.51328356372639605 0.17313047621671676 0.081439940737922406 -0.0038346541155578626 -0.01665419404081497 0.0021608417923683681 0.044752172821779582 0.54356791627658563 0.29070250111858198 -0.017345436540696646
leaf_count=4939 1741 40884 254 11047 10542 4620 59406 76641 11879 1694 6166 147289 2762 5280 311 27259 2911322 8400 16702 6188 1019 7307 16880 1102164 8652 340489 52784 861 3196 3477
internal_value=0 -0.0160771 1.80338 0.42257 -0.0349318 1.46349 0.359101 0.501933 0.66577 3.88028 -0.0536103 0.103978 1.26609 0.735457 1.16744 1.0351 -0.0555843 -0.00150121 0.526372 0.996466 1.50018 2.15327 -0.0188218 -0.0265658 0.4818 0.0898381 0.205946 3.21449 3.45572 0.715864
internal_count=4892155 4849457 42698 199857 4649600 36693 188810 129404 88520 6005 4098496 551104 32073 10219 30332 27570 4088277 1176955 37382 20680 14492 8326 1139573 1127696 25532 540562 200073 4311 4057 11877
cat_boundaries=0 3 5 125 252 253 380 383 385 386 422 542 662 664 666 667
cat_threshold=2485535908 805830914 39102 402990019 70752 0 0 0 0 0 0 0 0 0 0 0 0 0 0 0 2147483648 403844096 256 0 0 0 0 0 0 0 0 0 0 0 4194304 8388608 6309908 256 0 0 0 0 4 0 16384 0 0 0 0 0 0 0 0 0 0 33554432 8192 0 0 0 0 0 0 0 0 0 0 0 16777216 256 0 0 0 0 0 0 0 0 0 1 0 0 0 0 0 0 0 0 0 0 0 16 16384 0 33554432 0 0 268435456 8 0 0 0 0 0 0 0 0 0 0 0 4194304 0 0 0 0 0 0 0 0 0 0 0 0 0 131072 0 0 0 0 0 0 0 0 0 0 0 0 0 0 0 0 0 0 0 0 0 0 0 16384 0 0 0 0 0 0 0 0 0 0 0 0 0 4 0 0 0 0 0 0 0 0 0 0 0 0 1149239296 0 0 0 0 0 0 0 0 0 0 0 0 0 1073741824 512 0 0 0 0 0 0 0 0 1 0 0 0 0 0 0 0 0 33 0 0 0 0 0 33554432 0 16512 268435456 8 262144 0 0 0 0 0 536870912 0 0 0 0 0 0 8196 0 0 12582912 33554432 0 4096 0 0 4194304 0 536870912 1073874060 0 0 0 0 0 0 4 2048 0 0 0 0 0 0 0 0 0 0 0 0 0 0 0 0 8192 0 0 0 0 0 0 0 2097152 0 0 0 0 131072 8209 0 0 0 2097152 0 0 4 0 557056 0 0 0 4096 0 0 0 0 0 0 1082130432 16785408 0 16384 0 0 0 0 0 0 0 0 0 0 0 512 0 0 0 0 0 0 0 0 1 1048576 0 0 0 0 0 0 0 0 0 0 2048 0 0 0 65536 0 268435456 67117060 0 0 0 0 0 0 0 536870912 0 0 0 872415232 16777218 0 0 0 0 0 0 0 0 0 0 0 0 0 0 0 0 0 0 0 512 384 256 6144 470041600 256 103 0 0 0 0 0 0 0 0 0 0 0 0 0 0 0 0 0 0 0 0 0 0 0 0 0 0 0 0 0 841458470 35402299 0 0 0 2248704 266240 0 0 0 0 0 0 67108864 16 0 1024 0 0 0 0 276824064 0 0 0 0 138412032 0 69632 536870912 0 2097152 0 0 0 0 0 0 0 0 0 0 0 0 0 0 0 1024 0 0 0 0 0 0 2149580800 0 0 68157440 2097408 524288 0 0 0 0 0 0 0 0 0 0 0 0 512 0 0 0 0 0 0 0 0 541065216 0 0 0 0 0 0 0 0 0 0 0 0 0 0 0 0 0 3221225472 8192 0 0 0 0 0 64 0 0 9240576 0 0 0 0 0 0 0 0 0 0 0 0 0 0 0 1048576 128 0 0 0 0 0 0 0 0 0 0 0 0 0 0 18890752 524484 0 0 0 9437184 262176 2560 131072 16384 0 0 0 0 0 0 0 0 0 0 0 0 0 0 0 524288 0 0 0 0 0 33554432 0 16384 0 0 1082130432 0 36864 9216 0 0 0 0 0 0 0 0 0 0 0 0 0 0 0 0 0 0 0 0 0 0 0 0 0 0 0 0 0 0 0 0 0 0 0 2359296 0 0 536870912 100925444 0 0 0 0 0 0 0 0 0 0 0 0 0 0 0 0 0 0 0 0 0 0 0 0 0 1 80740352 885000 1212153858 2281701400 2208
shrinkage=0.1


Tree=13
num_leaves=31
num_cat=10
split_feature=11 4 4 31 6 11 7 31 22 12 31 31 11 12 4 14 31 31 31 8 13 31 16 29 12 22 31 17 11 31
split_gain=96245.5 35803.8 23706.1 22248.5 11594.2 11059.2 9210.5 8593.57 8025.93 7425.02 6471.58 5930.29 4872.89 4829.77 4695.09 4431.59 3657.65 3641.25 3533.26 3353.85 3267.94 7620.51 5137.09 10488.6 8033.14 10804.4 7504.68 4416.19 3771.31 3575.97
threshold=1.0274536737144213 7.4411107376392716 1.7812075817219337 0 4.9263134487016922 0.0069115934177042598 1.828913045011141 1 1.0020374046601648 -0.14838938839890739 2 3 9.4125806699985066 -0.14838938839890739 15.52668667466404 -0.14183729065706493 4 5 6 1.8344669600075183 -0.14601223343667749 7 -0.12912201722198083 -0.61574576041962492 -0.14838938839890739 1.0020374046601648 8 -0.12854830946710913 -0.15009488047409833 9
decision_type=2 2 2 5 2 2 2 5 2 2 5 5 2 2 2 2 5 5 5 2 2 5 2 2 2 2 5 2 2 5
left_child=2 3 5 13 18 11 10 -4 17 -10 -5 15 16 -2 -6 -1 -12 -7 -3 -9 21 28 23 29 25 26 -25 -27 -13 -23
right_child=1 4 7 6 14 8 -8 19 9 -11 12 20 -14 -15 -16 -17 -18 -19 -20 -21 -22 22 -24 24 -26 27 -28 -29 -30 -31
leaf_value=0.12815251888222615 0.57888161918549885 0.36330444256134548 0.1544506010408162 0.23471711509570256 0.30073061707656662 0.10918677886768929 0.14965505059889569 0.030377856720337583 0.14124734737505718 0.030454778712304578 0.17760936424243623 0.20194192344467765 0.23227792916966991 0.27486353727815516 0.50076370030562589 0.0091320798941514035 0.040159120750628663 0.0045901958745459505 0.15185796772159021 0.082948628399528532 -0.0069533600395768448 0.1285699181441424 -0.011039813596916134 0.19234490707189256 -0.011713843276833606 0.11157787412113168 0.018942097997089829 -0.028837225313852483 -0.0078063138414760152 -0.0059499895438098168
leaf_count=5758 849 922 6952 1918 2829 3335 11915 73765 6760 57503 1992 2777 1414 1359 2005 6850 60737 666429 5893 14525 2908778 1975 341408 2523 60978 19651 171633 2528 1240 444954
internal_value=0 1.01424 -0.0192495 0.776245 2.65243 -0.0292478 0.687205 0.474679 0.0835172 0.421094 0.541332 -0.0500917 0.486892 3.89996 3.83698 0.634377 0.445587 0.0511272 1.8122 0.390221 -0.0522733 -0.00444303 -0.00973053 0.0390718 0.199909 0.298378 0.214663 0.955731 1.36854 -0.053528
internal_count=4892155 91833 4800322 80184 11649 4705080 77976 95242 734027 64263 66061 3971053 64143 2208 4834 12608 62729 669764 6815 88290 3958445 1049667 1045650 704242 257313 196335 174156 22179 4017 446929
cat_boundaries=0 107 234 341 455 562 689 795 914 950 1006
cat_threshold=0 0 0 0 0 0 0 0 0 0 0 0 0 0 16777216 0 1024 0 0 0 0 6144 2048 0 0 0 0 0 0 4358144 8192 0 0 0 2162688 1048576 0 0 0 0 0 0 0 0 0 0 0 0 0 0 0 0 561152 9216 0 0 0 0 0 0 0 0 0 0 0 0 0 0 0 0 0 0 0 0 570425344 0 0 0 0 0 0 0 0 0 0 0 0 0 0 0 0 0 268435456 0 0 0 0 0 0 0 1073741824 0 851968 64 0 805306368 16777472 0 0 0 0 0 0 0 0 0 0 0 0 0 0 0 0 132096 0 0 0 0 0 0 0 0 0 0 0 0 4194304 8192 0 0 0 2097152 0 0 4 0 0 0 0 0 0 0 0 0 0 0 0 1082130432 256 0 0 0 0 0 0 0 0 0 0 0 0 1073741824 512 0 0 0 0 0 0 0 0 1 0 0 0 0 0 0 0 0 0 0 0 2048 0 134217728 33554432 67108864 0 268435456 262156 0 0 0 0 0 0 1073741824 0 0 0 0 0 0 172036 1 0 8388608 33554432 0 4096 0 0 0 0 0 12 0 0 0 0 0 0 512 0 0 0 0 0 0 0 0 0 0 0 0 0 0 268435456 134217728 134356992 256 0 0 0 0 0 0 0 0 0 0 0 262176 1 0 0 0 147456 4096 0 0 0 0 0 0 0 4096 0 0 0 0 0 0 67108864 0 0 20480 0 0 0 0 0 0 0 0 0 0 0 0 0 0 0 0 0 0 0 0 4194304 1048704 0 0 0 0 0 0 0 0 0 0 0 0 0 0 0 0 2151809024 12 0 0 0 0 0 268435456 0 0 1073741824 655872 0 0 67584 0 0 0 0 0 0 0 0 0 536870912 0 0 0 0 0 536870912 411200517 257 0 0 0 0 0 0 0 0 0 0 0 0 8388608 6491158 256 0 0 0 0 4 0 0 0 0 0 0 0 0 0 0 0 0 0 0 0 0 0 0 0 0 0 0 0 0 0 0 0 512 0 0 0 0 0 0 0 0 1 0 0 0 0 0 0 0 0 0 0 0 16 16384 0 0 0 0 0 0 0 0 0 0 0 0 0 0 0 0 0 4194304 0 0 0 0 0 0 0 4096 0 0 0 0 0 0 0 0 0 0 0 0 0 0 8388608 526336 0 0 0 0 0 0 129 0 0 0 0 0 0 0 0 0 0 0 8448 131104 0 0 0 0 4096 0 0 0 0 301989888 0 131072 0 0 0 16785664 16384 0 0 0 0 0 0 0 0 0 0 0 0 0 0 0 0 0 0 0 0 0 16777216 8388608 0 0 0 0 0 0 0 0 0 0 0 0 0 0 0 0 536870912 637543424 0 0 0 0 0 8388609 0 0 0 24704 0 67108864 2 0 0 32 0 0 0 0 0 0 1024 0 0 0 0 0 0 134217728 0 0 0 0 6144 0 0 0 0 0 0 0 0 0 0 0 0 0 1048576 0 4 0 0 0 0 0 0 0 0 1024 0 0 0 0 256 0 8192 0 0 0 0 0 0 0 0 0 0 1073747968 268435968 0 0 0 0 0 0 0 0 1 0 0 0 0 0 0 0 0 0 0 0 0 16384 0 2097152 0 0 8192 8192 0 0 0 0 0 0 0 0 262144 0 0 541065216 0 24581 0 0 12582912 33554432 0 0 0 0 0 0 0 131072 0 0 0 0 0 0 1048576 0 0 0 0 0 0 0 0 0 0 0 0 0 0 27279360 0 144384 0 0 0 0 4096 2048 0 0 0 0 0 0 4325408 8192 0 0 0 204848 557328 0 0 0 0 0 0 0 0 0 0 0 0 0 0 8388608 0 0 0 0 0 0 0 0 0 0 0 0 0 0 0 0 0 0 0 0 0 0 0 33554432 1048576 0 0 0 0 0 0 0 0 0 0 0 0 0 0 0 0 268435456 67117064 0 0 0 0 0 0 0 0 0 0 0 536870912 0 0 0 0 0 0 0 0 0 0 0 0 0 0 0 2147483648 2169541032 51266 0 0 0 0 0 0 0 0 0 0 0 4227072 2717908992 1065256 0 0 2113536 0 0 0 0 0 0 0 0 0 0 0 0 0 0 0 0 0 0 0 0 0 0 0 0 0 0 0 0 0 0 0 0 0 0 0 0 0 0 0 0 0 0 0 0 0 0 0 0 0 0 0 0 0 0 0 0 0 268435456 0 0 0 0 0 0 0 0 0 262144 0 0 0 0 0 0 0 0 0 0 0 0 0 0 0 1048576 0 0 0 0 0 0 0 0 0 0 0 0 0 0 0 0 0 0 0 0 0 0 0 0 0 0 0 0 0 439055200 1573179 0 0 0 2147594512 262153 0 0 0 0 0 0 0 0 0 0 0 0 0 0 0 0 1711341586 9368 0 147849216 262176 0 0 0 0 0 0 0 0 0 138412032 1124073536 128 0 0 0 0 0 0 0 0 0 0 0 0 0 0 2149580800 4096 0 1140850688 256 0 0 0 128
shrinkage=0.1


Tree=14
num_leaves=31
num_cat=17
split_feature=4 2 4 7 7 12 2 17 31 16 31 2 4 0 15 30 2 15 15 2 15 0 30 2 30 30 31 12 30 31
split_gain=74403.3 23373.7 15878.8 9436.27 9082.37 8102.36 17791.2 13675.9 10517.2 7327.87 23956.2 9756.64 6867.87 5893.02 5146.85 5064.38 4884.23 4871.18 4863.18 4655.8 4595.38 4298.16 3871.57 4638.15 3837.73 3545.55 3541.01 3524.12 3484.34 3442.76
threshold=3.3983227691268874 0 1.0000000180025095e-35 5.927553444523153 1.828913045011141 -0.14838938839890739 1 -0.12854830946710913 2 -0.12912201722198083 3 4 13.10101389355661 5 -0.14016042357183747 6 7 -0.14016042357183747 -0.14016042357183747 8 -0.14016042357183747 9 10 11 12 13 14 12.847797510190224 15 16
decision_type=2 5 2 2 2 2 5 2 5 2 5 5 2 1 2 1 5 2 2 5 2 1 1 5 1 1 5 2 1 5
left_child=2 19 5 12 22 6 7 8 18 10 14 13 15 17 -8 -3 27 26 -1 -2 21 -10 23 -4 -5 -23 -12 -14 -6 -17
right_child=1 3 4 24 28 -7 9 -9 20 -11 11 -13 16 -15 -16 29 -18 -19 -20 -21 -22 25 -24 -25 -26 -27 -28 -29 -30 -31
leaf_value=0.2868411137431594 0.26664751113317758 0.16682610717706459 0.12159281174534496 0.32704053112204629 0.16131339863066141 -0.0062062659858922601 0.14325204842362849 -0.014570488108036926 -0.024218892789328463 -0.010152714518155288 0.095237619750411173 -0.0074809276442523789 0.2549158058739967 0.0062708220707548877 -0.022961140632161273 0.1871245821913578 0.10618940320846447 -0.012050347305880754 -0.046725186765917887 0.51925757471499256 -0.034327571859027843 -0.02371191353299228 0.0079178410629032452 0.02317849992796402 0.15706662324732654 0.12243599400071743 0.036246203632261831 0.65466841987667346 0.046244838415735158 0.05023108617796606
leaf_count=3793 1774 4712 6369 2025 2764 3099114 15315 14700 2712 372261 11471 343168 2130 201487 2121 1927 3311 19164 494 1358 3149 1822 552282 19276 4090 19033 90289 246 52820 36978
internal_value=0 1.12046 -0.0136242 0.969589 0.133955 -0.035884 0.0378054 0.64857 1.02538 0.0113476 0.0728674 0.042545 0.824443 0.167453 1.22963 0.689676 1.85805 0.341962 2.47825 3.7748 0.791023 0.942922 0.0968223 0.476578 2.14146 1.09663 0.42909 2.95062 0.520041 0.570579
internal_count=4892155 58551 4833604 55419 633511 4200093 1100979 45703 31003 1055276 683015 665579 49304 322411 17436 43617 5687 120924 4287 3132 26716 23567 577927 25645 6115 20855 101760 2376 55584 38905
cat_boundaries=0 3 5 41 144 147 149 150 153 156 158 159 162 163 164 267 268 385
cat_threshold=384 262147 6408 470025220 256 0 0 0 0 0 0 0 0 0 0 0 0 0 0 0 0 402785280 257 0 0 0 0 0 0 0 0 0 0 0 7122976 8921105 6293520 0 0 2149826576 1052672 0 0 0 0 0 0 67108864 16 0 536870912 0 0 0 0 270532608 0 0 0 0 138412032 0 0 0 0 35651584 0 0 0 0 0 0 0 0 0 0 0 0 0 0 16384 0 0 0 0 0 0 0 2097152 4096 0 0 0 561152 9216 0 128 0 0 0 0 0 0 0 0 0 512 0 0 0 0 0 0 0 0 541065217 0 0 0 0 0 0 0 0 0 0 0 16 0 0 33554432 0 0 2415919104 67133448 0 0 0 0 0 0 0 0 8650752 2163372770 671621337 4 670271568 952472 2176 270664708 604520704 32948 0 262146 256 402719232 70656 2048 675700836 3187671042 33030 3233 1 0 0 0 0 0 0 4194304 0 0 1024 0 0 0 0 2172649472 525504 0 0 0 0 0 67181056 0 0 1048576 0 0 0 0 0 0 0 0 0 0 0 0 0 0 0 0 0 0 0 0 33554432 8388609 2147696896 0 0 0 0 536870912 0 256 0 0 0 0 0 0 0 0 0 0 0 0 0 0 0 0 0 0 0 0 67108992 0 0 0 0 0 0 0 0 0 0 0 0 0 0 0 0 1073741824 131076 0 0 0 0 0 0 0 0 65536 2048 0 0 0 0 0 0 0 0 0 0 0 0 0 0 0 0 0 0 0 0 0 0 8 0 1048576 0 0 0 0 0 12288 0 0 0 0 32768 0 4 0 524288 0 0 0 0 0 0 0 0 0 0 1082130432 18882560 0 0 0 0 0 0 0 0 0 0 0 0 1073741824 512 0 0 0 0 0 0 0 0 0 0 0 0 0 0 0 0 0 0 0 0 2048 536870912 134217728 0 0 0 0 12 0 0 0 0 33554432 0 536870912 0 0 0 0 335544320 16842754 0 0 0 268435456 2048 0 0 0 0 4194304
shrinkage=0.1


Tree=15
num_leaves=31
num_cat=16
split_feature=11 23 2 5 5 11 11 31 31 30 11 0 12 31 30 31 14 2 0 30 11 24 2 2 31 0 11 2 11 1
split_gain=72074.5 37604.1 17231.5 14918.7 9456.88 7731.19 7413.44 6426.11 6298.79 5480.28 4988.24 5898.97 5096.32 5717.26 4262.25 4166.9 4382.44 4085.62 3920.68 3910.82 5534.41 3531.72 3442.33 3434.7 3323.04 3057.08 3117.16 2839.9 4886.89 3771.13
threshold=0.79194396287671742 1.339463789051371 0 0.96638561357989794 1.7689314213154042 2.4208861295041699 2.0970602771023272 1 2 3 -0.022527120437008729 4 -0.14838938839890739 5 6 7 -0.14183729065706493 8 9 10 5.9486253397606097 -0.93873327126437456 11 12 13 14 0.15410516269126925 15 -0.15009488047409833 -0.29461562034141747
decision_type=2 2 5 2 2 2 2 5 5 1 2 1 2 5 1 5 2 5 1 1 2 2 5 5 5 1 2 5 2 2
left_child=3 2 -2 10 7 14 24 -4 -5 -8 15 12 13 -12 -3 16 27 -9 -19 20 -20 -11 -10 -7 -6 26 -24 -1 29 -29
right_child=1 5 4 8 6 23 9 17 22 21 11 -13 -14 -15 -16 -17 -18 18 19 -21 -22 -23 25 -25 -26 -27 -28 28 -30 -31
leaf_value=0.055471165330977894 0.40882507079173352 0.34895070687499646 0.17928622153678081 0.11823643421051651 0.22155190401330482 0.043074512792549827 0.40546540346762677 -0.027794370161406068 0.57539080797162445 1.1975086454302073 0.19617358191982603 -0.0021523025867136009 0.011600571830982467 0.042301510230618518 0.16673664968012836 -0.0048875834037996604 -0.0043331209930497147 -0.013887393430484583 0.088445916493078716 0.036727521946314449 0.43312246319799774 0.14487497244695119 0.022551426127611809 0.41768104237852388 0.056468537445476558 0.010104835045235894 0.064322486234964171 0.25687185528313611 -0.022561883242255741 0.79828428579560418
leaf_count=2530 1358 1531 2948 6896 1296 286 929 10879 102 32 2719 544980 253209 21189 8578 3726842 5095 12009 9841 47275 489 8070 59129 2554 19147 114393 25600 1469 639 141
internal_value=0 0.742918 0.559905 -0.019743 0.517062 2.35798 1.00404 0.345108 0.243407 1.7586 -0.0316409 0.0388822 0.157671 0.599008 1.94843 -0.0471564 0.60128 0.291826 0.380895 0.489257 1.04661 1.48849 0.210836 3.81579 0.670701 0.207708 0.35168 1.28977 2.10485 3.04287
internal_count=4892155 127222 114273 4764933 112915 12949 29474 83441 206120 9031 4558813 822097 277117 23908 10109 3736716 9874 80493 69614 57605 10330 8102 199224 2840 20443 199122 84729 4779 2249 1610
cat_boundaries=0 3 110 237 238 240 346 347 453 456 458 459 462 465 577 579 582
cat_threshold=0 0 6152 0 0 0 0 0 0 0 0 0 0 0 0 0 0 0 2052 8200 0 0 0 0 0 0 0 0 0 0 0 0 147488 1 0 0 0 73984 524312 0 0 0 0 0 0 0 4096 0 0 0 0 0 0 0 8448 0 24576 0 0 0 0 0 0 0 0 0 0 0 0 0 0 0 0 0 0 0 0 33554432 524416 0 0 0 0 0 0 0 0 0 0 0 0 0 0 0 0 4194304 8192 1 0 0 0 0 293601280 0 0 0 64 0 268435456 65792 0 0 0 0 0 0 0 0 0 0 0 0 0 0 0 0 0 0 0 0 0 0 0 16384 0 0 0 0 0 131072 0 0 0 1 0 0 0 4 0 0 0 0 0 0 0 0 0 0 0 0 1150287872 256 0 0 0 0 0 0 0 0 0 0 0 0 1073741824 512 0 0 0 0 0 0 0 0 1 0 0 0 0 0 0 0 0 0 0 0 0 0 0 33554432 0 0 268435456 131076 0 0 0 0 0 0 1610612736 0 0 0 0 0 0 24580 0 0 8388608 33554432 0 4096 0 0 4194304 0 0 1073741964 0 0 0 0 0 0 516 2176 617840752 967560 0 0 0 0 0 0 0 0 0 0 0 0 0 0 0 2048 0 0 0 0 0 0 0 0 0 0 0 0 0 0 0 0 0 0 2166571008 266248 0 0 0 0 0 0 0 0 0 0 0 0 0 0 0 0 561152 25600 0 0 0 0 0 0 0 0 0 16777216 4096 0 0 0 0 0 0 0 0 0 4194304 0 0 0 0 0 0 0 0 0 0 0 0 0 0 35913728 65536 0 268435456 537010176 1 0 0 0 0 0 16 0 262144 0 0 536870912 2176 0 0 0 0 0 0 0 0 0 536870912 0 0 0 0 0 536870912 411176328 257 0 0 0 0 0 0 0 0 0 0 0 0 2692743168 2296950 0 0 0 0 0 4 0 0 0 0 0 0 0 0 0 0 0 0 8388608 0 0 0 0 0 0 0 0 0 0 0 0 0 0 0 0 0 0 0 0 0 0 0 1 0 0 0 0 0 0 0 0 0 0 0 16 16384 0 0 0 0 0 0 0 0 0 0 0 0 0 0 0 0 0 4194304 671633730 240386201 256 402981824 65536 2208 384 0 4096 676331906 134217753 16 0 0 0 0 0 0 0 0 0 0 0 0 0 0 16384 2048 0 1 0 0 0 2151680000 3136 0 0 0 0 0 0 0 0 0 0 0 0 65536 0 0 0 0 0 0 4096 0 0 0 0 0 0 0 33554432 0 0 8192 0 0 0 0 0 0 0 0 0 0 0 0 0 0 0 0 0 0 0 0 0 0 0 0 0 0 0 0 0 0 0 0 0 0 0 0 0 0 0 8196 0 0 0 0 0 0 0 536936448 0 576 0 268435456 67840 8196 1 0 281034752 33554432 80740352 852233 536887296 33554432 16
shrinkage=0.1


Tree=16
num_leaves=31
num_cat=12
split_feature=3 11 2 23 3 31 2 0 0 11 0 11 15 31 24 31 31 11 31 15 2 12 17 2 23 11 15 24 28 15
split_gain=72185.5 24626.7 11760 11097.2 7604.41 6752.58 6607.69 5417.52 5415.79 5854.35 5137.57 8203.72 3439.72 3268.04 2992.65 2977.77 2865.92 2775.11 3013.51 4065.13 2710.75 4291.88 9466.81 9910.73 6209.57 5977.95 5195.48 5354.21 4980.98 4124.03
threshold=5.8838364457267316 0.4190535873836862 0 1.5280614874092169 -1.0000000180025095e-35 1 2 3 4 1.9204279939740487 5 9.4125806699985066 1.796358350850993 6 -0.93323755183868085 7 8 -0.15009488047409833 9 -0.14016042357183747 10 -0.14838938839890739 -0.12854830946710913 11 0.65646035970428762 -0.15009488047409833 -0.14016042357183747 -0.28898221459235407 0.30441775917616692 -0.14016042357183747
decision_type=2 2 5 2 2 5 5 1 1 2 1 2 2 5 2 5 5 2 5 2 5 2 2 5 2 2 2 2 2 2
left_child=1 4 -2 6 16 -4 8 -6 -3 -10 11 12 -7 -8 -11 -5 17 18 -1 -20 -18 22 23 25 -25 26 27 28 -22 -26
right_child=2 3 5 15 7 10 13 -9 9 14 -12 -13 -14 -15 -16 -17 20 -19 19 -21 21 -23 -24 24 29 -27 -28 -29 -30 -31
leaf_value=0.045140958803164377 0.36793852311392422 0.0046876334544065082 0.28262706046621255 0.23324857981891173 0.026852550579823914 0.11513303227661309 0.10044339591560346 0.0031437098601012252 0.044740787522260052 0.76914967378187515 0.033727815149526268 0.48644653579393965 0.2494796127099925 0.00061483914921440206 0.12204344642533221 0.10156935957916598 -0.0082222726986166585 0.00047056963708739141 0.30963001145242619 -0.064631529321058062 0.25458544364054353 -0.0044641215701064696 -0.0093605380040568033 0.0061337760880785007 0.058063783940234572 -0.015632785982292272 -0.057753850948998625 0.1071055870210699 1.4238032263678475 -0.018892803481534166
leaf_count=2661 2567 30308 3014 2075 127167 12971 3410 398015 81433 72 5007 694 2234 79709 9652 10326 1116193 4857 1218 381 2388 2335801 278953 316609 39873 4393 1504 10196 37 8437
internal_value=0 -0.00910886 1.64623 0.320184 -0.0244792 1.42591 0.264506 0.0888511 0.413158 0.534921 1.22276 1.50124 1.34872 0.0472195 1.26835 1.23873 -0.0389133 0.52083 1.11051 2.19083 -0.0401547 -0.0244931 0.0465554 0.148523 0.11229 0.862016 1.17934 1.3887 2.72425 0.446239
internal_count=4892155 4865668 26487 216985 4648683 23920 204584 525182 121465 91157 20906 15899 15205 83119 9724 12401 4123501 9117 4260 1599 4114384 2998191 662390 383437 364919 18518 14125 12621 2425 48310
cat_boundaries=0 3 115 118 120 122 124 222 333 460 566 569 570
cat_threshold=384 262147 6440 0 0 0 0 0 0 0 0 0 0 0 0 0 0 0 0 0 0 0 0 0 4096 2048 0 0 0 0 0 0 4325408 1 0 0 0 0 0 0 4 0 0 0 0 0 0 0 0 0 0 0 0 1182793728 256 524288 0 0 0 0 0 0 0 0 0 0 0 0 512 0 0 0 0 0 0 0 0 0 0 0 0 0 0 0 0 0 0 0 0 0 0 134217728 0 0 0 268435456 67117056 0 0 0 0 33554432 0 134217728 0 270336 576 0 872415232 16777216 0 0 0 8404992 301989888 2493662372 268960002 39100 80740352 589824 402990016 103458 618190896 969097 0 0 0 0 0 0 0 0 0 0 0 0 0 0 0 0 142614528 1 0 0 0 0 1140850688 17408 0 0 0 0 0 0 0 0 0 32768 0 0 0 0 0 0 0 0 0 0 0 268435456 67109888 131072 0 0 0 0 0 24576 0 0 0 0 0 0 0 0 0 0 0 268435456 0 0 0 0 0 0 0 0 0 0 0 0 0 0 0 0 0 0 0 0 33555456 0 0 1048576 1 0 1077936128 50996228 0 0 0 128 0 0 0 0 0 0 0 0 0 0 0 0 0 0 16777216 134217728 134221824 0 0 0 0 6144 33792 0 2097152 65536 0 0 0 4194304 2105344 0 268435456 0 2162688 1048576 0 0 0 0 0 0 0 0 0 0 0 0 0 0 1082130432 2097152 0 8192 0 0 0 0 0 0 0 0 0 0 0 0 0 0 0 0 0 0 0 0 0 0 0 0 0 0 0 0 0 0 0 0 0 0 0 33554432 0 0 2415919104 603979784 0 0 0 0 0 0 128 268435460 65536 0 0 0 0 0 0 0 2147483648 0 0 0 0 0 0 0 0 0 536870912 0 0 0 0 0 2684354560 2550268928 256 0 0 0 0 0 49296 0 0 0 0 0 0 8388608 6489136 256 0 0 0 0 4 0 0 0 0 0 0 0 0 0 0 0 0 1115684864 0 0 0 0 0 0 0 0 0 0 0 0 0 0 0 0 0 0 0 0 0 0 0 1 0 0 0 0 0 0 0 0 0 0 0 16 16384 0 0 0 0 0 0 0 0 0 0 0 0 0 0 0 0 0 4194304 0 0 0 0 0 0 0 0 0 0 0 0 1048576 0 0 0 0 0 0 0 4 0 0 0 0 0 0 0 0 0 0 0 0 0 0 0 0 0 0 0 0 0 0 0 49296 0 0 0 0 0 0 0 0 0 0 0 0 0 4 0 0 0 0 0 0 0 0 0 0 0 0 1073741824 0 0 0 0 0 0 0 0 0 0 0 0 0 0 0 0 0 0 0 0 0 0 0 0 0 0 0 0 0 0 0 0 0 0 0 0 16384 0 0 0 0 0 0 0 0 0 0 0 0 0 0 0 0 0 4194304 587270528 3336887813 30688 470024192
shrinkage=0.1


Tree=17
num_leaves=31
num_cat=14
split_feature=3 3 2 3 30 30 2 30 19 2 1 2 2 2 12 17 2 15 30 1 1 30 24 30 30 1 1 28 1 24
split_gain=58797 20615.8 9661.94 9169.79 7206.93 6532.4 4927.59 4922.01 4614.58 4162.5 3676.97 3500.87 3246.61 2886.84 4068.31 7057.35 8454.77 5621.95 5579 6550.48 12062.9 8285.72 5098.11 4725.39 4017.07 3609.16 3500.75 5705.69 6212.96 5593.99
threshold=5.8838364457267316 1.8003436910880437 0 -1.0000000180025095e-35 1 2 3 4 1.0928380827252073 5 -1.3605616087112231 6 7 8 -0.14838938839890739 -0.12854830946710913 9 -0.14016042357183747 10 -0.56181955042035769 0.13696017841973482 11 -0.41624737443591925 12 13 -0.17185486487555596 -1.0240058232716989 -0.11839279429536963 -0.74675783138191543 0.03691394735128499
decision_type=2 2 5 2 1 1 5 1 2 5 2 5 5 5 2 2 5 2 1 2 2 1 2 1 1 2 2 2 2 2
left_child=1 3 -2 13 9 12 -5 -8 -6 -4 -11 -7 -3 14 15 16 17 18 19 21 24 -1 -23 -22 -21 -26 -24 -28 29 -29
right_child=2 5 4 6 8 11 7 -9 -10 10 -12 -13 -14 -15 -16 -17 -18 -19 -20 20 23 22 26 -25 25 -27 27 28 -30 -31
leaf_value=-0.14150286535535825 0.28208571554325096 0.041089753169581821 0.064012653319280938 0.0033931636914647013 0.050351783981401554 0.10598170237686205 0.091357500981882486 0.019313201780527523 0.15261467004059154 0.067869042017297307 0.35942179245550632 0.028351916557790083 0.14586326491394402 -0.005112549220108605 -0.00190803643972268 -0.0080617965682854148 0.017117193386758215 -0.033855983226074714 0.061857340839428947 0.20225563692001744 0.49454736905751262 0.48109279282027045 0.21354423076703713 -0.096454475521265223 0.56641220268838965 1.0613716162057316 -0.15520388400697316 1.5885707855224611 -0.085131916164222068 0.38012197004454967
leaf_count=961 4516 4579 975 371502 10226 6226 9984 186213 7762 529 2373 85685 8483 2918082 1066264 88565 99722 3208 10037 246 167 504 2599 566 511 207 818 44 305 296
internal_value=0 -0.0079675 1.48898 -0.017633 1.21205 0.430387 0.101642 0.229838 0.944267 2.44884 3.05223 0.336215 1.09194 -0.0337814 0.00591357 0.133576 0.291408 0.876669 1.10303 1.77282 3.49378 1.24763 1.80718 0.43625 5.81865 6.99369 1.43893 0.20158 2.42555 5.36509
internal_count=4892155 4865774 26381 4760801 21865 104973 567699 196197 17988 3877 2902 91911 13062 4193102 1275020 208756 120191 20469 17261 7224 1697 5527 4566 733 964 718 4062 1463 645 340
cat_boundaries=0 3 4 5 8 9 11 14 17 20 21 22 23 24 25
cat_threshold=388 262403 55740 2208 2176 148681234 2245536504 528 2048 1213202432 134217816 3758097536 1074020610 40352 2283274256 2220377048 1056 3707651174 134742322 4104 470024192 1936 16 640 768
shrinkage=0.1


Tree=18
num_leaves=31
num_cat=17
split_feature=11 0 5 5 31 10 11 30 31 0 11 12 31 11 31 30 31 30 30 27 11 31 30 30 15 31 30 13 31 16
split_gain=43509.7 19287.5 12685 7992.25 5240.76 4947.35 4448.65 4182.44 4074.1 3865.98 5311.39 4142.79 4902.76 3433.73 3291.66 3134.55 3044.23 2825.65 2741.52 2714.27 2323.41 2318.12 2308.5 2291.69 2275.94 2167.5 2082.6 1802.01 4847.04 3528.35
threshold=1.2335246706974121 0 0.96638561357989794 5.7816604599929358 1 2.7449100169125771 7.2978997247682882 2 3 4 0.13447935345479392 -0.14838938839890739 5 7.2978997247682882 6 7 8 9 10 -0.82125392047222112 0.79194396287671742 11 12 13 2.3737607377201857 14 15 -0.14601223343667749 16 -0.12912201722198083
decision_type=2 1 2 2 5 2 2 1 5 1 2 2 5 2 5 1 5 1 1 2 2 5 1 1 2 5 1 2 5 2
left_child=2 4 9 7 26 14 15 8 -3 10 27 12 -12 17 -4 -5 -9 -6 20 -17 -7 23 -16 -13 -19 -11 -2 28 29 -1
right_child=1 3 5 6 13 18 -8 16 -10 25 11 21 -14 -15 22 19 -18 24 -20 -21 -22 -23 -24 -25 -26 -27 -28 -29 -30 -31
leaf_value=0.16602930251230283 0.20864127123577753 0.3566890125101882 0.094444771499828273 0.45352876852357371 0.34946093803340178 0.11093133396734581 0.34304131200150501 0.13913027428115407 0.082372176532192157 0.029544005224303761 0.23391284846806398 0.32186793549641851 0.05383363580005697 0.36510845238010459 0.045844072129398103 0.28094117697608234 0.019696359953590876 0.10449816919951892 0.051413750510313085 0.073473246620610652 0.32531250071379769 0.014408482527467995 0.011237053405839656 0.067526535574000526 0.24108955057812687 -0.0043843467509301825 0.39047125741129829 -0.0017206127066096864 0.005431049402281265 -0.056104733680599206
leaf_count=3139 1279 570 5352 259 588 2952 1060 2240 8765 18931 1788 429 9657 706 21642 732 41789 8439 18563 4552 610 72319 175902 1940 1426 3201171 1460 942115 340854 926
internal_value=0 0.761806 -0.0115463 0.515489 1.82293 0.220272 1.55342 0.387157 0.994859 -0.0229029 0.0215235 0.261934 0.82218 1.51526 0.171308 1.19448 0.258028 1.37246 0.669296 1.02021 1.47231 0.176083 0.150306 1.14744 1.24117 -0.0418479 3.06632 0.00543457 0.0672756 1.15144
internal_count=4892155 73865 4818290 59967 13898 225021 6603 53364 9335 4593269 1373167 86133 11445 11159 202896 5543 44029 10453 22125 5284 3562 74688 197544 2369 9865 3220102 2739 1287034 344919 4065
cat_boundaries=0 2 114 115 151 153 260 387 388 500 501 502 622 623 624 751 752 858
cat_threshold=80740416 819464 0 0 0 0 0 0 0 0 0 0 0 0 0 0 285212672 0 132096 0 0 0 0 2048 2147485696 0 0 0 0 0 0 4325376 8192 0 0 0 2097152 1048576 0 0 0 0 0 0 0 0 0 0 0 0 0 0 1107296256 0 561152 8192 0 0 0 0 0 0 0 0 0 0 0 0 0 0 0 0 0 0 0 0 0 1048576 0 0 0 0 0 0 0 0 0 0 0 0 0 0 0 0 268435488 8 0 0 0 0 0 0 536870912 4 9175040 16448 0 536870912 0 0 0 0 2147483648 33554432 2208 0 0 0 0 0 0 0 0 0 0 0 0 0 0 118784 69207044 268435584 0 0 0 0 1077936144 0 0 0 0 0 0 0 2451587872 1605658 0 0 0 8192 131072 651395152 688520 0 0 0 0 0 0 0 0 0 0 0 0 0 0 0 2048 0 0 0 0 0 0 0 0 2097152 0 0 0 0 0 0 0 0 0 2150842368 266256 0 0 0 0 0 0 0 0 0 268435456 0 0 0 0 0 0 561152 17408 0 0 0 0 0 0 0 0 0 0 0 0 0 0 0 0 0 0 0 0 574619648 128 0 0 0 0 0 0 0 0 0 0 0 0 0 33554432 0 0 268435456 401472 0 0 0 0 0 0 0 0 0 0 0 67108864 2 0 0 0 0 0 0 0 0 0 536870912 0 0 0 0 0 0 134217728 0 0 0 0 0 0 0 0 0 0 0 0 0 0 0 0 0 2097152 0 0 4 0 524288 0 0 0 0 0 0 0 0 0 0 0 0 0 0 0 0 0 0 0 0 0 0 0 0 1073741824 576 0 0 0 0 0 0 0 0 1 0 0 0 0 0 0 0 0 32 0 0 0 0 134217728 0 67108864 0 4227072 17039364 0 0 0 0 0 0 0 0 0 0 0 0 0 188420 1 0 268435456 33554432 0 4096 0 0 4194304 0 0 1073741836 0 0 0 0 0 0 516 2048 0 0 0 0 0 0 0 0 0 0 0 0 0 0 0 0 0 0 0 0 0 0 0 0 0 0 0 0 0 0 512 0 0 0 1073750272 917640 0 0 0 0 0 0 0 0 0 0 0 0 0 0 65536 0 0 4160 0 0 0 0 0 0 0 0 0 0 0 0 0 0 0 0 0 0 0 0 0 0 0 0 0 0 0 0 0 0 0 0 0 0 0 0 0 0 4194304 4 1 0 0 0 33554432 1 67108864 0 1073742848 73728 0 0 9437440 0 0 0 33554432 671096960 2048 2176 0 0 0 0 0 0 0 0 0 1024 0 0 0 0 0 0 0 0 1048576 8388608 0 4096 536903680 0 0 0 0 0 0 4325376 0 0 268435456 1 2097152 1048576 0 0 0 16384 0 0 0 0 0 0 0 0 0 0 1107296256 8192 0 0 0 0 0 0 0 0 0 0 0 0 0 8192 0 0 0 0 0 0 0 0 536870912 0 0 0 0 0 0 0 0 0 0 0 0 0 0 35913728 0 16512 1342185472 8 0 0 0 0 0 0 0 0 8650752 0 0 67108864 0 1 0 0 0 0 0 0 0 0 0 0 0 131072 2176 2576 0 0 0 8 0 0 0 0 2097152 0 0 0 0 0 16384 0 512 0 0 16 0 4194304 0 32768 0 0 0 0 0 0 0 196644 0 0 16 0 0 4 0 0 0 0 0 4 0 0 0 0 0 0 138413056 16777216 0 0 0 0 0 0 0 134217728 0 0 0 0 1073741824 512 0 0 0 0 0 0 0 0 1 0 0 0 0 0 0 0 0 0 0 0 0 0 0 0 0 0 0 16384 0 0 0 0 0 0 0 256 0 0 0 0 0 8196 0 0 8388608 0 0 4096 0 0 4194304 0 0 2 0 0 0 0 0 0 1049088 334 0 0 0 0 0 0 0 0 0 0 0 0 0 0 0 0 135472256 16641 0 0 0 0 0 0 0 0 0 0 0 4227072 524289 2115666 256 0 2113536 0 0 0 0 16384 0 0 0 0 0 0 0 0 0 0 8388608 8192 0 0 0 128 0 0 0 0 0 0 0 0 0 0 0 0 0 0 0 0 0 0 0 0 0 0 0 0 0 0 0 0 0 0 16 16384 0 0 0 0 268435456 0 0 0 0 0 0 0 0 0 262144 0 0 4194304
shrinkage=0.1


Tree=19
num_leaves=31
num_cat=12
split_feature=11 0 2 6 11 2 11 4 27 11 12 2 17 11 0 15 2 0 17 2 15 24 2 17 2 13 0 0 12 15
split_gain=34103.4 18383.4 9290.94 7824.46 7024.79 5316.65 4671.96 4286.98 4216.62 4048.05 3606.68 6484.66 6510.96 5622.9 6403.24 3773.16 6443.57 7301.43 7018.36 3460.86 3446.25 3106.13 3042.46 2811 2733.91 2642.42 2487.74 2446.52 2433.74 2910.84
threshold=0.71344072593081609 0 1 -1.0000000180025095e-35 2.4208861295041699 2 2.9311571696525278 1.7812075817219337 -0.98004587221786588 17.635794740081668 -0.14838938839890739 3 -0.12854830946710913 -0.15009488047409833 4 -0.14016042357183747 5 6 -0.12854830946710913 7 -0.14016042357183747 0.91897691517513125 8 -0.12854830946710913 9 -0.14601223343667749 10 11 -0.14838938839890739 0.56160555431533499
decision_type=2 1 5 2 2 5 2 2 2 2 2 5 2 2 1 2 5 1 2 5 2 2 5 2 5 2 1 1 2 2
left_child=3 4 -3 10 24 6 8 -5 -4 -7 11 12 13 14 20 16 17 18 25 -6 21 -1 -9 -19 -2 -13 -10 -8 -26 -30
right_child=1 2 5 7 19 9 27 22 26 -11 -12 15 -14 -15 -16 -17 -18 23 -20 -21 -22 -23 -24 -25 28 -27 -28 -29 29 -31
leaf_value=0.29396519912547669 0.0019394688534299252 0.29728487190482195 0.85139274308605239 0.0066937675327014452 -0.04420131194181403 -0.0044009250178710969 0.048807066801720103 0.13245610729810517 0.053842452590503499 0.49346647965608209 -0.0047486454324393197 0.08324566055040275 -0.011111589781337229 0.0027592969175047936 0.072134571922838564 -0.0080758300889621493 -0.0050162308964791305 0.014537189392895292 -0.018083954863018028 0.25333767778799404 -0.072184146790478465 0.053076716708715034 0.031324459693418509 -0.007656521394441439 0.20934734402807811 -0.038825062146797124 0.015171698027688682 0.1513105750151876 0.058954974457869416 0.14108352607285141
leaf_count=2909 2638 1283 63 568416 431 38929 4062 3188 30717 164 3071554 30435 13991 7374 12163 340851 337743 226337 10467 4622 367 656 43199 76310 2215 1883 36334 5551 9073 8230
internal_value=0 0.478994 0.306851 -0.0144634 1.2193 0.277065 0.429993 0.0907923 0.336659 -0.0231172 -0.0301206 0.02013 0.42873 0.75074 1.08205 0.00517875 0.0480547 0.144083 0.530714 2.28373 2.19044 2.49639 0.383102 0.0894093 0.977097 0.761332 0.328976 1.08206 1.10596 0.980186
internal_count=4892155 144312 117103 4747843 27209 115820 76727 614803 67114 39093 4133040 1061486 37460 23469 16095 1024026 683175 345432 42785 5053 3932 3565 46387 302647 22156 32318 67051 9613 19518 17303
cat_boundaries=0 2 5 8 10 12 15 17 19 22 25 27 29
cat_threshold=80740416 819464 0 0 6152 2485257380 805855490 32950 470025344 256 619970832 32792 2159178500 671613017 16422 80805952 32776 675283328 134217753 1610612992 278787 50464 676878274 168050841 256 571006008 1204865 2550604678 78946
shrinkage=0.1


Tree=20
num_leaves=31
num_cat=19
split_feature=3 6 2 10 30 3 2 31 30 2 31 3 30 30 4 0 2 30 30 2 1 2 13 31 17 31 23 2 14 30
split_gain=33071.1 13669.2 7413.22 6045.12 5129.05 4473.2 4933.1 4399.12 3670.16 5978.32 3331.73 3020.7 2802.41 2790.43 2756.96 2337.17 2297.05 2278.06 2234.68 2113.2 2691.64 2051.55 2640.92 4798.7 3577.15 5718.79 3450.93 2336.16 2702.76 2081.46
threshold=6.7005349966544694 0.95644542466023064 0 2.7449100169125771 1 -1.0000000180025095e-35 2 3 4 5 6 1.8003436910880437 7 8 1.7812075817219337 9 10 11 12 13 -1.3605616087112231 14 -0.14601223343667749 15 -0.12854830946710913 16 0.27926496298859621 17 -0.14183729065706493 18
decision_type=2 2 5 2 1 2 5 5 1 5 5 2 1 1 2 1 5 1 1 5 2 5 2 5 2 5 2 5 2 1
left_child=1 5 17 14 10 21 13 -6 9 11 -4 -8 -5 -7 -3 -9 -10 -2 -16 -12 -21 -1 23 29 25 -25 -27 -28 -29 -23
right_child=2 3 4 12 7 6 8 15 16 -11 19 -13 -14 -15 18 -17 -18 -19 -20 20 -22 22 -24 24 -26 26 27 28 -30 -31
leaf_value=-0.0070649775510890356 0.14292908542370361 0.011420401768496406 0.46944148039827793 0.1375114997898918 0.18341961344876268 0.67947447241722225 0.092056208256950212 0.067622173963341053 0.020528490700265356 0.013663792693174012 0.030914009748969608 0.2687156346925097 0.052255465902548016 0.10029175350414449 0.076815624034922828 -0.038587503488965058 0.0018492042568963058 0.30326384593893296 0.025393474622562331 -0.014464206284810398 0.28765189913712658 0.1914288176754026 -0.0033400951546649462 0.11164405641292774 -0.0066376353448811681 0.0026261608805533622 0.0029232909613062553 0.042951919809026393 -0.019585347764365546 0.024493390342891219
leaf_count=911503 1452 173780 431 4642 2768 160 6170 9047 77463 19535 796 1148 22932 189 11849 2682 438250 2570 29547 367 1501 1918 2385638 5225 264084 417161 35394 54805 7908 1240
internal_value=0 -0.00536729 1.23434 0.22594 0.952456 -0.0175005 0.0677792 0.70181 0.0653248 0.42569 2.12044 1.19606 0.666769 3.7735 0.16945 0.433237 0.0465528 2.45879 0.40137 1.68801 2.2708 -0.0288349 -0.0168239 0.033379 0.0284187 0.0765156 0.0659475 0.234702 0.350605 1.26165
internal_count=4892155 4870541 21614 242750 17592 4627791 542915 14497 542566 26853 3095 7318 27574 349 215176 11729 515713 4022 41396 2664 1868 4084876 3173373 787735 784577 520493 515268 98107 62713 3158
cat_boundaries=0 3 4 7 107 108 111 205 206 207 209 212 213 214 216 219 307 401 404 405
cat_threshold=536871328 262403 55740 2208 128 0 6144 0 0 0 0 0 0 0 0 0 0 0 0 0 0 0 2048 4096 0 0 0 0 2147483649 0 0 33554432 0 0 0 0 4718592 524288 0 0 0 2162952 65664 0 0 0 0 0 0 0 0 0 0 0 0 0 0 1140850688 8192 557056 8192 0 0 0 0 0 0 0 0 0 0 0 512 0 0 0 0 0 0 0 0 33554432 0 0 0 0 0 0 0 0 0 0 0 0 0 134217728 0 65536 0 268435456 67379204 0 0 0 0 33554432 8388608 2048 6452804 3187671042 32774 0 0 0 0 0 0 0 0 0 0 0 0 0 0 16777216 526336 139776 2304 0 0 0 71680 2048 0 0 0 0 0 0 4620320 532481 0 0 0 0 65536 0 0 0 0 0 0 0 0 0 0 0 0 0 0 0 0 0 16384 0 0 0 0 0 0 0 0 0 0 0 0 0 0 0 0 0 0 0 0 536870912 0 0 0 0 0 0 0 0 0 0 0 0 0 0 0 0 0 0 67108864 2176 384 81319988 977293 4093640708 1646535938 34052 106 3296 134217728 671088728 1661012360 1088708101 32744 0 0 0 0 0 0 0 0 0 0 0 0 0 0 0 2684354560 412224513 18688 0 0 0 0 0 0 0 0 0 0 0 4194304 2155872256 6507574 256 0 2097152 1048576 0 0 0 0 0 0 0 0 0 0 0 0 0 0 8388608 0 0 0 0 0 0 0 0 0 0 0 0 0 0 0 0 0 0 0 0 0 0 0 0 0 0 0 0 0 0 0 0 0 0 0 0 16384 0 0 0 0 0 0 0 0 0 0 0 0 0 0 0 0 0 0 0 135266304 0 0 0 0 33554432 0 0 0 0 302551940 262163 64 0 0 2147598384 266241 0 0 0 0 0 0 0 0 0 0 0 2113536 0 0 0 0 524288 0 0 128 0 0 0 0 0 0 0 0 0 0 0 0 0 0 0 0 0 0 0 0 0 0 0 0 0 0 0 0 0 0 0 0 0 0 0 0 268435456 8 557680 2668667008 18 1814
shrinkage=0.1


Tree=21
num_leaves=31
num_cat=16
split_feature=3 11 0 5 31 31 3 2 31 12 31 3 15 2 17 0 11 31 15 31 31 31 2 31 11 16 16 31 11 2
split_gain=29328 13211 8007.33 4917.48 4773.19 4470.96 4352.39 3816.21 3083.09 2617.69 5115.36 4096.46 3140.06 5830.22 6015.6 6625.85 4983.54 5483.52 2954.1 2937.88 2581.44 2448.17 2432.09 2407.52 2327.19 2325.73 2302.01 2556.3 2236.7 2600.02
threshold=7.5172335475822063 0.53680844280253825 0 -1.0000000180025095e-35 1 2 15.684219056859581 3 4 -0.14838938839890739 5 0.98364514016030624 -0.14016042357183747 6 -0.12854830946710913 7 -0.15009488047409833 8 -0.14016042357183747 9 10 11 12 13 1.7045440923728201 -0.12912201722198083 -0.12912201722198083 14 9.4125806699985066 15
decision_type=2 2 1 2 5 5 2 5 5 2 5 2 2 5 2 1 2 5 2 5 5 5 5 5 2 2 2 5 2 5
left_child=1 3 5 9 -2 -3 8 -7 -6 10 18 12 13 14 15 16 17 25 -1 -17 -5 -13 -4 -8 -9 -12 27 -19 29 -25
right_child=4 2 22 20 6 7 23 24 -10 -11 11 21 -14 -15 -16 19 -18 26 -20 -21 -22 -23 -24 28 -26 -27 -28 -29 -30 -31
leaf_value=0.18489274279378495 -0.13285896274961032 0.21192595412526988 0.031585788101453509 0.055218090974038264 0.25205184928259511 0.010166219764690268 0.34807113655739363 0.059450180342255701 0.086847227381694314 -0.0041600682543874801 0.18559101982963844 0.15658110575204776 -0.0069998342591703943 -0.0040578237534203386 -0.0079657807814814182 0.1140308576128321 0.011400993033875803 0.12159586448995462 -0.062315192907098228 0.010753235449419118 0.0061746422038369822 0.03775985637238647 0.0020964255880020479 0.25530455267980912 0.12804158448600383 -0.067411119199853209 -0.028405913398407485 0.050850536669106772 0.26763394721977957 0.043061095310059971
leaf_count=2329 674 1830 42877 10925 1261 14766 1070 31183 10830 3045439 4814 2294 354659 367733 88262 2790 21951 6269 610 170094 580717 7104 80411 891 5879 393 2934 27843 1678 1645
internal_value=0 -0.00431545 0.26392 -0.0144201 1.27276 0.586337 1.37365 0.531812 1.04357 -0.026703 0.0160958 0.0124266 0.00653111 0.0456922 0.143198 0.226167 0.500468 0.701356 1.33131 0.124264 0.0708129 0.669703 0.123539 2.13153 0.703116 1.66176 0.565765 0.639025 1.77648 1.18807
internal_count=4892155 4874106 176946 4697160 18049 53658 17375 51828 12091 4105518 1060079 1057140 1047742 693083 325350 237088 64204 42253 2939 172884 591642 9398 123288 5284 37062 5207 37046 34112 4214 2536
cat_boundaries=0 2 103 230 233 344 447 450 452 506 541 668 782 785 899 952 955
